clear all;
close all
x1_step1.xoffset = [-5.77958503181519;-3.8455214993922;-6.73137821792711;-4.82382049313163;-7.73934700774368;-6.05303964826581;-10.1318346117183;-8.17504873292066;-12.2704633770775;-10.2522772765052;-0.230615188586447;-0.00677477688486605;0.0258975526558086;0.0346458939236383;0.0123119877740418;0.0175337309997084;0.00572919243015783;0.0094884813816896;0.00221047183606857;0.0033207074198389;0.00504391587527518;-0.195697096317486;0.015373934383126;0.0850088675213454;0.0204430950341702;0.0489659643601557;0.00458394797163382;0.015908002733321;0.00188725745967869;0.00651657093743306;-6.30778525718227;-7.90066538793152;-4.23293012689428;-4.89020856216987;-3.3023309291766;-3.24756852177389;-4.63115680817949;-4.97422670529782;-6.54588867253481;-6.87992603984675;-0.0393930528806948;-0.0136211610504783;0.0421471698450051;0.0373919380940241;0.0544972591934803;0.0611134018080927;0.0390068075275369;0.0504231864207485;0.0193484343697077;0.0282024246907568;0.0197534591483673;0.00406834813542599;0.0237093661833637;0.022178892347256;0.0592420186416435;0.0533459344480415;0.0491617001404471;0.0259576375635605;0.0264034728071223;0.0184574575605496];
x1_step1.gain = [0.417451290717844;0.525803888086892;0.326152343422952;0.482283510672043;0.407270720824382;0.471780947248228;0.382155946686328;0.572951772243201;0.380615201276325;0.583132292072323;4.99561787782806;4.14465600504384;3.65757355300246;4.68656876370966;7.20716524807648;7.01962854276657;22.4991632642179;12.983409824356;54.8960916467626;39.5414245979716;3.57840560220201;2.81731820267212;11.8258637724001;4.97349287759264;20.5066381728868;8.92622019000359;44.2063237801397;20.4600463347562;91.7682496309559;66.3615466116039;0.681299983891167;0.351492728152816;0.656219847686509;0.576877461823445;0.68980679177542;0.753570191461437;0.718121911631556;0.54427365906452;0.686685477078252;0.541331739629629;29.9214178130319;22.4012244869348;10.3170922345418;11.8214006630578;6.17327209351912;5.95713788242108;7.47049150023248;7.01616654828678;16.6558806881565;19.6504749629273;47.9055372187701;35.7504064351851;14.4464942474228;12.0021849931511;4.83985129077428;6.77855109982932;13.6528205280981;9.8414656790656;39.261817777119;14.2597970450537];
x1_step1.ymin = -1;

% Layer 1
b1 = [-1.5346073556882375843;1.5073978928841789138;1.4124036099024646074;-1.4592366521867243812;1.4759446101358466574;-1.4558259838087457272;-1.3221759118154843282;1.4268476102898302038;-1.2404500624273129272;1.1158767672472982291;-1.3900152583255869221;1.2140277619912509532;-1.0626418719579853178;-1.0445607078369849585;-1.0237391088771028436;-1.0748753088435407665;-0.98930134078925346941;0.96249612389329619599;1.0152023129922638223;0.92376942469321632334;0.86912723349256337801;0.84273892678518969035;-0.83030064168519224221;-0.82561221050265898302;-0.87001824497333990482;0.76754366860788103555;0.7043043652953171474;-0.67250922583203120997;0.66040045707661676477;-0.60308319088680417686;-0.58605436232890961712;-0.63571225902489003623;-0.41904783692406138984;0.37571340612246734159;0.49182587987396342299;0.55456072944016188142;-0.38563394134010670067;-0.42237432243355998995;0.32377945222383369694;-0.29222342986466898207;-0.29973619099486142892;0.13512296459281519789;-0.24286488937158676182;-0.16783272996707626623;-0.093604483708650654261;0.093545372743964044782;0.16059250057172741455;-0.098709517817413466867;-0.14851422815248191411;-0.02559272665275724376;-0.0087106106170318515353;0.015834010315797005658;0.06174338077827221799;0.0095370992072663831468;-0.050677957517678798305;-0.16031627071858714495;0.23646938402005426849;-0.19196034939369779893;0.29474628782891115764;0.20158674227844022853;0.35261891705932901786;-0.40040262031611217886;-0.37037281109497605103;-0.42699234082644743626;0.41921073385016266455;-0.38189740852241904623;0.53041272261145278044;-0.4719292201850636137;0.42272396906158993257;-0.53277123021439765083;-0.47149968380095841347;0.62354674371471374705;-0.69620200711937163529;-1.0652130533540313806;-0.87454269137697659975;-0.78054134411947295735;-0.81799921275686104938;0.66558488280578986807;-0.94924273308820728001;-0.82884384443123793051;0.95594411728246564408;-0.9431630678580966709;0.97869236932963643572;-1.0546382055493821461;-1.0476140888575133925;-1.1351168214397329148;-1.0699272353051796358;1.0820913693073137551;1.1649066892596344758;1.2292800027360297754;1.2361164850686896521;-1.3257626485276388095;-1.2502931517826383345;1.28919751458086429;-1.3550201349737955869;-1.3968463262957511173;-1.4457679093772366485;-1.4476539978841309608;-1.6120002878991304129;1.5379112337166911395];
IW1_1 = [0.037902971950832302361 -0.2316671571477395275 -0.063782238550543976507 -0.26465815098701889196 -0.15985242160363832831 0.20415213017123493011 -0.041169153584878825924 0.12182600408708421647 -0.063149153074139430242 0.30007427387002993946 0.058309947818243570983 -0.17022327918361512822 -0.19986193825918066591 -0.1928536228674823938 0.061680377245506373685 0.19818476781643912243 -0.11712173397128310126 -0.11891588352416106178 0.27631650684087255554 -0.24631384518614693468 -0.32142076193214641489 -0.22238738624546383615 0.0074776370984064458383 0.25416101426859755152 -0.23619375592445412959 0.28128584588445715298 0.30176375073773431534 0.064086864809646149066 0.013157342759616124164 -0.20630078620109879028 -0.1812739603910620001 -0.087446597426130839859 -0.27230841815184669841 0.034317423323098943111 0.1053709718741394491 0.27430661782340037824 -0.021872578611303691853 0.060503962808638137028 -0.28169696625967527437 0.069803909590419196962 -0.26120858562197402097 0.32700997169826123701 0.055703839391373848045 0.24321252048122737888 -0.24344084503280605247 0.086795291000024255013 0.2551026586302764243 -0.22381908019892346462 -0.19993723986845143847 0.1245083905682197456 -0.021604580406976901796 -0.20701529793247150368 0.2263787564692680554 -0.27750576232282941902 0.19518279098865740084 -0.15697396033615373945 -0.16302195234894320541 0.27172801647352906596 -0.18509739145004461269 0.21300050304466919271;-0.11033139314001687292 -0.27148756063718704201 -0.14623729111432123839 0.055491491665260919697 0.27148983261491588248 0.071768226085981406959 0.048867230890515055142 -0.063576580300988339012 -0.14721446284840805641 0.17154712815784778357 -0.3175696514455881303 0.19382161348380858024 0.32715094954577111919 -0.17087931235164757759 0.32480691977744446941 0.062866013850954166609 0.40557885725545306244 0.27564408538282492156 0.16861812932884440164 0.29959673190567243095 -0.18858124464439174339 0.2664388917834799031 -0.075034896146910071146 0.19504251512386880374 -0.19813247295724342734 -0.23280232511056889178 -0.038403041185827192783 0.074737634352312509733 0.27946810864846582945 -0.040782594942509867164 -0.02876052676762720639 0.26036361695957516149 0.065144921654150075851 0.1774407097366819952 -0.049137019798624261002 0.1628284599461161386 0.10167184410002254313 -0.291212791970997531 -0.049397699286891909309 -0.071306780521271970197 -0.48109416746443728341 -0.16448923991139885459 0.12634102802080329764 -0.19577898952119796028 -0.36478327081818090472 -0.10506811960798875805 0.26581948121854775957 -0.023982479152885739782 0.25621901414314013357 -0.20918726810527396576 0.20701128922968764501 0.1800744905423337372 -0.19650927177809393576 0.059781306320261851095 0.13227086174313201772 -0.050818838103686363172 -0.37054199862677666966 -0.29772892002047601778 -0.25226987556391833323 -0.070512188228077019025;-0.05522786488453073489 -0.14633651230672098387 -0.27659630548123675942 -0.3660961416413909264 -0.14723106964823134968 0.075445134782531869666 -0.24305817510805624582 -0.40499025552785317128 0.24069773860966128809 -0.12489487021558849655 -0.0095211799009134769067 -0.17277754542479398236 0.1550503062063529891 -0.22017738304022274609 -0.088167573352865166725 0.3342672912827907572 -0.0059489410743662814868 -0.21750791406347541601 -0.067890959066167738678 -0.044623432701749739249 0.54885619795296547441 -0.19453326169111878619 -0.04089375413436614759 -0.20138576985066689029 -0.24897861041813174054 0.042904632913976274711 -0.38043967955797014513 -0.067071975620507373606 -0.31003350131732659856 -0.44072470529563756436 0.12588855119368883018 -0.18819085575518132436 -0.3181907954207388034 -0.15276384885567073635 0.22032310820414086061 0.036847274847025462963 0.019763245126069209356 -0.08818257264600799783 -0.11348731977337327137 0.10092221998259866267 -0.1166398696795889478 0.032905901444693082258 0.26396493791505171167 -0.11884529762693615829 0.27323894394996212087 0.19584989311536737944 0.1078278747886993183 0.18189533654259867901 0.41812133639772214311 -0.31830945394291931816 -0.3236807259356864197 -0.30610765245498205989 0.1675835519565515852 0.21584920007166116807 0.178374766021199338 -0.056233501074790449847 -0.065851927277625413315 -0.044872897079588476565 -0.15430399428197694167 0.068462145239950977782;0.12598537490194061661 0.11671194130762210794 -0.17062365908456278429 -0.078017372867844894668 -0.044560270884478274389 -0.28896914253443345411 -0.10421022430079675269 0.23568058983291353958 -0.21297816552879189622 -0.18339673223553373815 -0.098634030020228247171 -0.21709888111662595245 0.29330157035114789998 0.27064776766294701416 0.23709329157223540951 -0.065622670673753380477 0.052964919387882100632 0.31922899944568494668 -0.28868029774956971423 -0.27412570493872412403 0.201784126700991856 0.22730269126488367171 0.12531666011502196056 -0.086593417090095631261 -0.12819878154376929125 -0.12399892938156759081 -0.014036944471288059777 -0.064168095918214609896 -0.21140874264154940754 0.031022602008598670204 -0.12892506601598080485 -0.25294782067262056025 0.15276874348164337647 0.089478550046462684842 -0.3006227384595389629 0.2545792127795878379 0.28276047113369623398 -0.25954843639085567464 -0.034574904310958574916 -0.13830271359135498654 -0.018626044765837589112 -0.0018354837533989245765 0.001085538681806311103 -0.21776178238961146905 0.075686994919679076443 0.28094329071559165367 0.22379590536213345153 0.15863602836348464353 -0.318077424280683696 0.31453278265361400701 -0.14965615827295447593 -0.31980217613222960971 -0.13105319806508231029 0.02675496327980297212 0.076999429446587844272 0.039584523126515280822 -0.21706101484992720851 0.30998994009042507569 0.19828395046118948986 -0.069095510701012802235;-0.19281744174558620997 -0.30958866762467662781 0.21075596374184205062 0.28188137559319587089 0.16271090709367017069 -0.032940995246487671244 0.026708374130680209713 0.034600974306657060475 0.093293365977697828573 -0.32869240777951008736 0.15847748826204638428 -0.29768009084131591413 0.17513740934574251185 -0.038503832864713129214 0.11812195534595849866 -0.23533268121303566045 0.23034736027690763671 -0.067091488079431105263 -0.23265245106959994703 0.14284139002023463205 0.08695800831440428369 -0.24415233731431842945 -0.28937066345582873605 -0.10642157846487082518 0.11318375486549474285 -0.3277244183254240939 0.33301979094263445269 0.24235662461208679064 0.19985847764747860511 -0.33294899918290271623 -0.055701143729971654139 0.25161264573162406277 0.060991596096839358065 -0.18095820491852770973 -0.19648597181162341663 0.18251974470869841705 0.31501526399082607766 -0.26841938413005339559 -0.30605601711923319241 -0.017046410754362431583 0.13940441780822618312 0.18127844645577609328 -0.17680395557296904596 0.1211072551119444507 -0.13740149875267260171 0.010877204991779012774 0.11316093686710936017 -0.28335174927283474089 -0.062859460254394025625 0.0089342754350278941189 0.028539582141483672839 0.02054867280411810937 -0.024808573883408548133 0.09232680956239702752 0.18275343017639963938 -0.20358152754805830531 0.10843616649463465318 -0.32756207487937516465 -0.1386944950256894793 -0.35889932681753861088;-0.038917905924930148998 0.14254781683820480498 -0.16111872501989335515 0.1186060194045685523 0.27799161685584461434 0.35363763672520187598 0.099115872978182320563 -0.27804455040379250086 -0.058704841010168859472 0.16238528144537214826 -0.13721921492862318437 -0.062251088878856081221 0.17387242819314702169 -0.011630838772765925149 0.090929194978134272875 0.1613920255385101199 0.057178025544594217322 -0.069380234383380187668 0.22560360270640070213 0.053667762006809192898 0.16386267502162135679 0.15059285087951984616 -0.14598418892839423733 -0.061839897676056805598 0.061738525692165632797 -0.20345701070367935848 -0.13639384129644030463 -0.24124953822532743675 -0.28123531684473251913 -0.11300474797836657093 -0.064537094624848120872 -0.28750925608271538092 0.19433201168444547147 -0.24308684624840956601 0.18158386208779905835 0.022278246114056800276 0.21479437467854581301 -0.15335630081678025549 -0.19756951920889306851 -0.03722523604529821839 -0.2198744922698721016 -0.10485032282486801691 0.15522519930939002175 -0.049357255702497132566 0.11813507896195674096 0.13367796856370675607 -0.0484603760656336785 0.092364332130514661956 0.20672339033676456754 -0.041406123762173986658 -0.040451593401792107496 0.402171200337117285 0.15720094458312541819 0.38343411148726319615 0.12393845949274039098 -0.12111183215541110325 0.32364534169571496092 -0.22723259350692612268 -0.31921064602600762727 0.35242428249547563812;0.028549227935509902121 -0.12134573577070709161 0.19084820853651851547 0.034078542497705352488 -0.14950789716679940833 -0.17972087552964763346 -0.030232894254658162353 -0.096305295538290133783 0.090980288775165979454 0.17712174649153231143 0.29274973402088788621 0.033163590292447107932 -0.00011359168500066829308 -0.12538027931721942854 0.32375804113932732387 0.037960304916136625164 0.13053509534692372962 0.09089702369775158608 -0.13167556504721092403 -0.29846834849232672937 0.20244358415676330654 0.2816266229334947746 0.36830696968249132528 -0.087713165572888690535 -0.14150817996604905802 -0.075888564177679154743 0.352227352776178948 -0.27947185046473060899 -0.24603664387857357432 -0.22243893119059848784 0.009644691776375035816 -0.092509526924770768552 0.20981115771829617067 0.074671730683156592456 -0.27283950495237446754 0.16733863224160247518 0.15118618264780669946 0.33320550385838093588 -0.20945271395578024531 -0.10915953107802227329 0.22383813300184113304 -0.27908860044163941172 0.19780335086739311845 0.33447335974727149255 0.2897619326017429886 0.044838157632222451487 0.01095914563759684511 0.2006966988204588187 0.13492116838082995889 0.32896328162753246671 0.28987007471128378722 -0.12352084663907636486 -0.095712389703499684002 -0.17013277235799012521 0.043620842681258271967 0.056161308794982350845 0.19838907167728497827 0.28483221719441048636 0.093704891319176142339 -0.072411010492154800899;-0.0032243341309671435212 0.20242485969634799181 0.21633046391663682262 -0.13210369464318882926 0.25610889246636986405 0.13102850212842706568 0.11745071372253958197 -0.09886415132463929889 -0.14351940102437102387 -0.21039138467192275428 -0.17275106318092012248 -0.21519356390111324395 0.082398725856528048928 -0.17921788811051178603 -0.21110644873307954361 -0.016170398133140344993 -0.35275778527589790601 0.13501815067408157178 0.17013386700170521348 0.14904917838623368831 -0.089644937989001707845 -0.15218276123920604359 -0.17012015227365503978 -0.11743454536962977253 0.19986546253061410194 0.17738848327637737889 -0.008474684744937642511 0.064477050768546734227 -0.11673102722661211905 -0.24452436225523957458 -0.25223938002650198031 0.32683747594551049165 -0.29217290783708022017 -0.085469598585964645654 -0.12516049585277408407 0.25194227528491075496 0.086758553606741062314 0.3087719516803529296 0.13011329368582064125 0.28694058826127527562 -0.018523536919071652285 -0.22463256724639091289 0.0033063374058751567389 -0.25734352522255898865 -0.31369344911272389886 -0.038659785181816605504 0.039173185751701040946 -0.30001839655963780107 0.12103830958126314543 0.12581887436744576547 -0.30959248814089246338 -0.015273604519037361354 -0.042879104954753673173 0.16938246450807095678 0.19825991146184460123 0.33983756497215472647 0.26485658006284168442 0.11436662633202779316 -0.072481815454404602272 -0.24186341431313887473;0.14254010890614279838 0.17053767118438395434 0.13395364228341841151 0.13021752097529673553 -0.064433352828911452659 -0.18900418553267064881 -0.21522792696792111822 -0.17481062088403184762 0.19340165120735716697 0.084663364319548697901 -0.086516631245439970521 -0.27035880587603811076 0.074429433139223288851 0.2898814602522152839 0.34208921947362697091 0.14812745851038683353 -0.20422168926751346762 -0.076663261094534113083 -0.22708828797295568802 0.2866891829089374677 -0.001596165725284821868 0.00024948324131309775574 -0.049986023791092563939 -0.37013606274305926869 0.069373157058276666009 0.26511596868484182954 0.25129596728260600313 0.26327751116158537581 -0.29831026646905445254 0.24830873415245191538 -0.14162008452741547959 -0.28430859001934816188 -0.041674675091785656766 0.0010780783591132399053 0.22811159003694797542 -0.29881250970776623843 0.27721345249164708324 -0.15735680255164885555 -0.057190051298746283348 0.066491033347495648309 -0.12983912751297421728 -0.10122723786192079631 0.025644704160519751074 0.050940108606763401244 0.20209005808893082401 -0.12780243903728119581 0.20396989092094161555 -0.33089487874806244871 -0.0056071108364625695669 0.2888853194401052038 -0.0073386986842388281932 -0.26982313765311205511 0.070756812752309522496 0.27114819629242975507 0.053909937173039157443 -0.33018330892478381378 -0.13669685244666263113 -0.26722311760371708633 0.31221743875380636446 -0.083494066880445236278;-0.35169856887707906523 -0.0012236964327896285992 0.22910750323812517637 0.13775175050349600103 0.20510435480588568025 -0.112529166989132276 -0.31388263574548680435 -0.014746278581809872665 0.26631750727481240393 -0.16613581906234592411 -0.44390498965317504165 -0.14718001905167613086 0.39258971510411660999 0.27119401904444406792 -0.061076096652743792903 0.35496879093495908863 0.072441204243704468424 0.18404735868544647159 0.20784972715080585193 -0.18120933415706463876 0.10206214823028324223 -0.18230113564341135501 0.17654003551725860888 -0.01629465457973671566 -0.081758901927264912568 -0.088124261113198196216 -0.030970797421494798696 0.21708916920274179407 -0.18332302354270751943 0.12317936711114856052 -0.27438179153030345381 -0.28036162533599512381 0.026811287285472898412 -0.20087945926264344498 0.080134405381021497905 0.055549723541778520119 0.32258681650165527133 -0.22000220406275744489 0.15630507101602073017 -0.2081676963048511575 0.10975094038046406819 0.210067018469784067 -0.034575198557577097036 -0.16758232997055780289 -0.031894427100744145165 0.22372712304434644315 0.337289432436398251 0.29851814998512121724 0.069797684552739838737 -0.00092532239492743462855 0.34715784035464541946 0.36050525164704094738 0.31084533101365408037 -0.1470853293156389463 0.41527719508919330726 -0.2029856256414662441 0.032097262050939573408 0.056896950443752043747 0.070852385272015011575 -0.28458254718889980373;-0.022765829279587302542 0.30497312728393921599 -0.21092161248985574762 -0.31027391070091098202 0.098587920399217460199 0.11692333159757603567 0.16434751175153766711 0.036993042041649895624 -0.36903329647104199385 0.081052526858164011814 -0.16509133795152836077 0.24617855541886191073 -0.25750597000152308791 0.15079034505536009769 0.038969964020475547639 0.19144422795356219602 0.21129144907110108953 0.15246115261492856896 -0.31637098398190371951 0.040636924933057268217 -0.49901945369238320804 -0.22654568589182555449 -0.12605318969142337293 -0.047822221181359016173 0.44720262877435656979 0.09036631526990379637 0.20100733286629429708 0.25233643629069757441 0.52172084210473035348 -0.17659089519628623499 -0.32678132581375723964 0.052016990598149612235 0.035368072700913043283 0.063872511871846726628 -0.37406856643371616533 0.07992431440821005928 -0.12031207027336578153 0.38167820280166459002 0.15350787155329140288 -0.1205573165112252404 0.090629809473182276758 0.36695679721841073517 0.081707428232779016897 0.0078695692308580061924 0.23334906065083568794 -0.022562456130461809589 -0.4463505489029406248 0.34675688078422212124 -0.18133235447989773381 0.013269523301504999868 -0.19131844823631533048 0.045387334728569463105 -0.3433733974311350412 -0.10976085174967029068 -0.39067897677028129433 0.27018391047545836647 0.085951345903712908503 -0.02472714134422143023 -0.063678717394456199608 0.25557988726970276572;-0.29177861152668926881 0.29854461558829681334 0.2097649508101260829 0.1176280741425838744 -0.32278821544862140724 0.02177090737949111815 -0.077937849665819569633 -0.14619821721004214177 -0.25284498209635647425 0.23818499912583163125 0.10300075300849549642 0.010431490342564565116 -0.13714304185464556984 -0.33322641437763134142 -0.34209735965800947 0.19449679024670860072 -0.20695594249593346481 0.0450092151656618783 0.123426091482379513 -0.28337958922685435592 -0.13255700801892994489 0.25717801005356760724 0.26640639508568014771 0.079247209272764032595 -0.22411379447820428679 -0.13990723058241630317 -0.014208290686634112571 0.14992053235328653416 -0.19594965887197177135 0.012639740797172359377 0.1084062630920225867 0.19532291413567806626 -0.27986039618240743376 0.049948622803441575235 0.17744216450184813194 0.28917011468456160772 -0.047373497001273329188 -0.32693477203942244991 -0.15355583838918737682 -0.15101612786889870299 -0.079385485761983246022 -0.2771072192789288402 -0.19959761388568797447 -0.13488208284206662513 -0.080115828608067096717 0.0038078632453085849499 0.18096823874819992217 -0.26057283890724941555 -0.057458512980673781545 0.27677183957554268856 -0.23099387186245126657 -0.17231709830313940435 0.0021455517180702775998 -0.25504158234769996882 0.15122808118914818354 -0.24001030192505989902 -0.18845211222975460919 -0.13402298999313491668 0.19274205050454568111 0.0028517980915892873761;0.10059001466810379988 -0.16623000303656795817 0.018486859565989027798 0.33050734064450304484 -0.29221110597822130828 -0.1025506225230924523 0.28139293693215389203 0.037801437431113471543 0.314354161812736288 0.13662465067958529108 0.3459573838330935458 -0.26697043491163174878 -0.27257426398250833577 -0.20957281803718230684 -0.11452256507969581223 -0.31941486168450777816 -0.10405776722488548069 -0.17757170389318885362 -0.15416170630833597732 0.16397645595651377803 -0.1716684089297570992 -0.2328525166208984809 0.30693126370596529595 -0.25889226362844680596 -0.22382691455030473415 -0.12284924852176948296 0.1458176677980250191 -0.28985958055892713237 0.033252030230988292858 -0.088052120246666212844 0.29220093668441549095 -0.016373356595320905787 0.093154525245189093163 0.011220879384204060503 -0.030002389060108963781 -0.082820193297551386591 -0.2883370424536763621 0.26741423160251992508 0.18766070806616005906 -0.18646757938264293952 -0.0022395449311711917995 -0.3445005249436587369 0.061822816942428943099 -0.044044517160679176604 0.19345970813665153143 -0.13952585196502093057 -0.28907373056459173544 0.17838300925616551451 -0.33458158966960599434 0.30220176938772447262 -0.17430931688217232711 -0.37385935329986591524 0.034753251897744447119 -0.041846431278429678524 -0.34830518896416023944 0.33096461412278777026 0.16937124845565051934 0.024794703706719288527 -0.1351896600778621782 0.17688306874273029834;0.052590721491258624054 -0.25997169996684293958 -0.17225026593590384016 0.28886974343413396316 0.087622339248043495941 0.21078797259978762635 -0.32029976578447810764 -0.05290449532548169298 -0.11665894934968880359 0.13927145691444101083 0.093330309304954381378 -0.01474883735079536573 -0.030171751782915558898 0.11247999793617567688 0.089860531584745134692 -0.36095022504495438698 -0.28527478985504600706 0.25908317572973960097 -0.24468142763482478297 0.25829593976565073943 -0.26585686205271802374 0.26704320550070015372 -0.017843731365006030437 -0.098781125374933803629 0.098950350956712063155 -0.023529221166690584416 -0.26879437817042423076 0.091203079356646121756 0.16141725126801978463 -0.23717352444461653471 0.21166076268283817718 -0.24676897609835932168 -0.28103151034326634417 0.4085112498767458078 0.065236070418853112085 -0.23799308710228767039 -0.26097683207693123109 -0.18285569879794486003 0.17399035385018610245 -0.050167317743123211737 0.24137827782857657066 0.20960462620078937346 -0.1013048815175589118 0.23411495227993137092 -0.34397173949083748035 0.31885206877706123718 -0.15638909061300643177 -0.083941455555316499271 -0.13387148240140148148 -0.2157165928959095258 -0.13046201490812855961 -0.26244764686808713661 0.2099366676681347077 0.22396550277631821491 -0.14138108771220486704 -0.046785999975923982241 0.18761672926454953103 0.24484571679472483252 -0.35512091817561353135 0.24665580366299771908;0.19935769913259912545 0.27858432685058392986 -0.256901983972348813 -0.12561316343423573061 -0.055244832604654285635 -0.18893838218899441928 -0.020872931820660845653 0.30848860722544435564 -0.22023531004364280128 -0.032453966163375140563 -0.18174866708009079774 0.10794724749850105605 0.11899346245161887548 -0.046457658263199065607 -0.042560432747323156955 -0.072070509332657642365 -0.053803399593421293023 0.053392017190513771374 -0.008792081091614077637 0.18100462116618948327 -0.33228195517410413773 -0.0014534877052156337709 0.14659901986960827136 -0.15488017816590987641 -0.17665491852062428779 0.235976705507430079 0.26301366768573969379 0.22921276659835340683 0.17813655927915830746 0.063014334628834281493 0.039381554552589417839 -0.30090769883508899918 -0.14212126518643405926 -0.19297234219174380643 -0.16452632078081980138 -0.1775654771035554691 0.12599821654589818398 0.32405774597746273002 -0.32735101782956826932 0.048674628224678953559 0.37006777172929355979 0.24787504430861181937 -0.15889423341409303347 -0.0051325429597961587033 0.065211582257454034361 0.15825431933033162757 0.17957975341358056731 0.28704020040269945246 -0.11379167636495855775 -0.17287404926528529558 0.16981162041336941848 0.023215575236024892786 0.31296479746715483161 0.29197752950742245082 0.14352300503505618923 0.024910657499683550725 0.27454323323204599117 -0.25196866158488939735 -0.33743595172956603045 0.30183250410891210302;-0.017490976155345415444 0.2797679030457517757 -0.29081867871934496961 0.10816475969767758158 -0.1333318980893723471 0.31711466921705255828 0.082824535524161871369 -0.19124614178698157163 -0.013579597480767750806 0.15049242661416462052 -0.033876543761982937097 -0.22909676558792355094 0.07613732745313728234 -0.08015134065653242712 0.35804683296152534089 0.17664721444138986595 -0.2204586609951774967 -0.22446451309517392869 0.086700405986082612619 0.24893592694004695876 -0.12966952380099475151 -0.091032740987047194858 -0.27796661805230682418 0.26142693650369186464 0.0011459584257610033655 -0.27128359255708645037 -0.28767201925024482589 0.1970554196032757166 0.35873095061230975134 -0.32838893822423076418 -0.13112822953866518083 -0.13023425777387129254 -0.36294661469552885746 0.156915299806146602 -0.1876210917053907079 -0.041519215418455372724 -0.19238714560368000428 0.057714543333679389769 0.20575393765154692538 -0.039979763453081185176 -0.41416447905048198175 -0.21962082824110790158 -0.0075416903876492791953 -0.10690418173418421433 0.018008506631401428183 0.23648225948991055678 -0.018520391538150438038 0.028823884860911915679 0.01235798930058348323 0.35783768714569291758 0.1516552442663971767 -0.22520223178640125239 -0.063151285375013049839 -0.41069961341550492717 0.036613332518010632821 0.0027139165078992307303 -0.1924593221945859467 0.096017505287695148475 -0.13122065165711291335 -0.053484484359280604071;0.11571902410368857528 -0.038869207933418442602 -0.13623064512970259332 0.21040227086911086896 -0.10055501869149673089 -0.34712434133715752704 0.014404285515882206056 0.31744394386875546266 0.19250364302874392597 -0.067926695635933481698 -0.083720715085043112547 -0.027621704505044416406 -0.11269554641455500898 0.31352184480935563204 -0.18801012113285064942 0.091489399884805824859 -0.012280697362979165962 0.081554354307738122221 0.12881218909910188697 0.1219606851001607678 0.16598611513376543281 -0.25334607330172076445 -0.34802428562613380025 -0.22250201140150607793 -0.0039527004990295632955 -0.28468247945501246043 0.047388606779554885706 -0.1460026950861514905 0.24923582150934409096 0.31906414180938641456 0.23411473464797788457 -0.26022305675648860213 -0.10190250134298398099 -0.070518014728063876939 -0.36063899858007431032 0.27846842971805207956 -0.37136293555043292658 0.27958346543715051347 -0.15398679508381052372 0.2871029021940462167 0.011998725790510185105 0.17655370151164903603 -0.13291347759310462306 0.23033303298815593907 0.25615614272657982742 0.14208540342549980107 0.16580309013311261834 0.073743362391572350734 0.006869862736185698357 -0.26434128506040061035 0.011773921033300369099 -0.20660670609109518803 0.20628046188340032341 0.27186742049731388304 -0.40759914036908712065 0.19597030012338376159 -0.16083906492006100342 0.17830501913407367787 -0.18259559154447160823 0.22147971183165582332;-0.32596960141956232704 0.18794629164002144006 -0.28863311331593244358 -0.14959339888104045135 -0.060995736194894671633 -0.21804770778882873183 -0.3311133759112671604 0.039131362010653508721 -0.040122171511786909603 0.166693734052484277 -0.35518295512943137693 -0.035449086256646486492 0.029042000907678777732 -0.023680894700438895328 0.15691301781855379605 -0.13029939151396172092 0.363006014864088844 -0.22824398678619228775 0.09300598841523088911 0.130349180434924522 -0.25534580473268586598 0.10693630848066316974 -0.065396934830054001542 0.13355079974267125564 0.19787033071208620649 -0.3252301298574712396 -0.25931971217534210972 0.037186402140959813611 -0.016120067834287779562 -0.26546693919599939626 -0.24209420379158910763 0.13321491443096689089 0.12317506530898152117 0.1509557424815726745 -0.32683241898192877395 0.24458537264900712116 0.25730220628642214153 0.22258475857366863404 0.23987288269615625325 0.057947208823189301496 0.023044466275611685813 0.39326948349296897423 0.04220786977350957786 -0.29092527095804882054 0.14693442482591606568 0.15416764468158780654 -0.19169496319853943089 -0.10519188395478679121 -0.2402536265313323649 -0.22368175948304999667 0.071218997101241132697 -0.12182838357761416326 0.31379358131893086981 0.063658816598904988115 0.28632966631148132342 -0.35436293495773907303 -0.065959633228723557608 0.19590874232641231067 -0.0083497336257419667305 -0.22677581916555761277;-0.16689548358744263346 0.13499715078616386643 -0.23674797729513819 -0.17497617731160178267 0.3240205687052612471 0.26164603340351377803 0.023389952089343472169 -0.021647675122589707386 0.18445513804359048304 0.44797845320466250785 0.064551463252255469882 0.08298294498642805328 -0.47236520459703890129 -0.25104638255246308765 -0.32326818280939600969 -0.36727456576384931441 -0.19914604396689572496 0.09549084960162702862 -0.36697180030414133789 0.23863860823984073267 -0.33954583954988337702 -0.060494472867606695343 -0.24353355531088841102 0.10248205714179500769 0.53008094438970709827 0.26038874975260506428 0.36485355623718040974 -0.22529606704735974376 0.31764040069662885513 0.019258804339244262049 -0.18789931806802456782 -0.11924067077596958719 0.1468137319735612345 0.1424939775195088465 0.21864705128845837723 -0.16040386783959301176 0.21545315606299933475 -0.1387810489329294461 -0.08869044604101659901 0.23993924165439989293 0.12580555836465084907 0.10736058186827351912 0.10098078871839041848 -0.025600136890102154208 -0.29032372921506577335 0.16347329521054831947 -0.19275430723379527453 -0.020143843100588296191 -0.18479650552050363999 0.23955180850454610431 -0.4321352289715530981 0.034423809532035477832 0.18229441229364640176 0.1108813184700401383 -0.36057419356003567179 0.37657577251500201632 -0.23223912702255705698 -0.097542094592176192824 -0.13869051656580372311 -0.23945315822330165423;-0.35054312728621606077 0.0889056856746130858 -0.23731512012985764293 -0.22124320032267283387 0.23552599289913445091 -0.053528000569173783685 0.015538003484695618595 -0.0078363278928776734095 0.16451405939488653041 -0.093259198533637704953 0.042702295008885796102 -0.21225171227780736949 0.054087120654515243034 -0.0076960665958440031484 0.15781971146080017721 -0.1890951879710961181 -0.016224933483459314659 -0.086766796235942328375 0.31107545284562759802 0.20283479403680951259 0.14333737848361233214 -0.065246288013018738372 0.29595082984414416982 0.018692574520615880262 -0.026577866207348446043 -0.24242998046674668622 -0.33816319762317181841 -0.13047448512687090383 0.34221189085012371223 0.040321700577450075853 -0.096848575387455060337 -0.085494465539572558899 -0.027068827984554424265 -0.36737544556566692489 0.1456603787650433135 -0.36512167884344920443 0.048760572674263036319 0.32924778602985915743 0.16883151013925754014 -0.18150916256259830295 0.035488875910777629985 -0.21079749667769423493 0.12600308966637666086 0.052687322707146828915 -0.14110378763132683244 -0.27584227308667758072 -0.21805688131330852597 0.2647975712662635206 0.17165774024702984413 0.36380071305380057289 -0.025737342790876270582 -0.26356477053068216865 -0.078481314675478489051 0.080408482225805419374 -0.14555807148050445288 0.20617511288878576092 0.35498328755380048616 0.12772248788115347917 0.30706583875752407886 0.063932778754388075448;-0.31791604126507083672 0.21354254552470472439 0.14118916030285696972 -0.12768429072522133327 0.083492663538690781166 -0.064396814227921941876 -0.18003875886556616748 -0.27432669955122457317 -0.27549768096718624255 0.04634102469433017818 0.24277671530663572086 0.23730095667428241502 0.11851320662750154666 0.041509501104166561525 0.34860438422156575511 0.27542974540183129406 0.01379254513548581508 -0.055890715146802626145 -0.22845776870284992266 -0.085035877106766716294 0.14521956594573234844 0.17910081718794920724 0.22851415067716754348 -0.33550779493457683067 -0.12242697773095105596 -0.33205093826179804539 0.28365414336887440072 -0.24630344753797206447 -0.23353124021940729893 -0.2053911466832294419 -0.33755771951494134564 -0.21755676416227001657 -0.0023922018312229490281 -0.25209575989739907431 0.23313031817467241846 -0.096109083677268836166 -0.076508381046520620994 0.10521243008174602229 0.072208126084839771575 -0.22193887257410593872 -0.23462532788430498498 -0.18387935639768412943 0.10316772513096096608 0.188646980435529521 0.06109955277922358291 -0.080869544640831791948 0.17044772548965236858 -0.11994732064974572561 0.28827991640204192469 0.22087215905459930965 -0.13688203566850543069 -0.18643282212937511977 -0.21398715710621357688 -0.24651164478513268308 -0.26267872855921675646 -0.027531387966313974197 -0.082089243774003728404 0.11856224671592918707 0.072397712359233853952 0.2802923042934397091;-0.039488907296416693449 -0.30711807705723626061 -0.24065924926968612629 -0.05065367971767748001 -0.25717275965557878648 0.24833801030961641376 0.27044696951168939458 0.0032481692224393425225 -0.078460747489607435279 0.26833820848237865953 -0.34745907492107813708 0.12709456341867189644 0.19485500072183234432 -0.25251903960838067986 0.13007094068526953157 -0.098271118157582382224 -0.12600490241968839711 -0.10636549632548428224 -0.22465353380178776366 -0.22490226017695172378 -0.12067380430626627186 0.21808307437333240841 -0.23370984122336443956 0.17305261341314348567 0.084066238476047716599 0.22141975691430404449 -0.27705804250784832332 0.20282393569316806148 0.057864063337200136172 -0.10858381841893804953 -0.22682178779767622756 0.2466674695465715661 0.12985956112766761095 -0.32561049737300823415 0.27200468786512310704 -0.1460912901016868104 0.13508639748554282511 0.051942669240815281251 0.28939189686053146122 -0.053988541704927402176 -0.21997170731397625021 0.029275337675551679067 -0.26624332082233864716 0.25255625545481769079 -0.20703710161095523201 0.074685609625073090534 -0.18044283891263174224 -0.17136690874404253426 0.098019546150659220274 0.1480425964200798028 0.27463557988381426256 -0.10701225234530276076 -0.19503129058027707243 -0.18410352629258314172 0.36313149481500428539 0.24988398327670638399 0.14075323689443497432 -0.14358509443291608831 0.10907428497842718007 -0.0010960741776297484168;0.29033953971802167748 -0.18608652239220138669 0.15162047665915814876 0.31786338968164534746 -0.12974490728174004062 0.099372328424207234665 0.3208757231148929856 -0.31644860055594498105 0.29933277808085045901 0.13160347449177259294 -0.02472875845910696424 -0.23589039417458382286 -0.16135677001069650971 0.27403112748922398012 -0.059299245738575354081 0.2158515980611014351 -0.18859852258858952889 0.29188622735961405885 0.074190253378668732931 0.0084557551973616848495 0.31553377145295480322 -0.31990359045893684842 -0.098528643641914909201 -0.15764223335437049789 -0.045812722332343486231 -0.30094308004757858166 -0.28660227863837539619 -0.082002672987748909117 -0.23556912070885746568 0.065314136499564107163 -0.21364417431478002762 -0.20439157962184992257 0.26737513666379936206 0.10563236642048445812 -0.2728578518815994447 0.07396950671199814531 -0.037266656521136649893 0.0916627917028007555 0.24225080323639006097 -0.20350793298487809824 -0.11611847634586586198 0.045200998172507618478 -0.19428418756006834989 -0.050993711459759019644 -0.2167162614716046376 0.033294404297783700142 0.047402715574712449287 0.073571073201511266726 -0.22873179386458747375 -0.24648772982591063418 0.0072441337658862058405 0.056275444578650114791 -0.20311790604862547949 0.029774777732633310456 0.15754415251752898475 -0.32428279050219421809 -0.29088382275765894969 -0.041622388253663357427 0.2403234095735637954 -0.27386068389348572349;0.06307114277709836847 -0.23359515289877821886 -0.064513263222584812939 -0.14975496919392300432 0.079376012188526537394 -0.054830032094356218053 -0.30861465054251363549 -0.31779121810260485548 0.16201046149735714996 -0.32529153168929503259 -0.060916691272587059069 -0.2698168755217817405 0.022659053676305641878 0.31909246667635315919 -0.1116677805783098526 -0.0077984500604233990967 -0.27657004755068792523 0.21091960570504386663 0.19136753172257167654 0.061106902463211362764 0.33611200541243962947 -0.16011961282828807152 -0.20104882971661339197 0.24378860989163544937 -0.12545504604751170352 0.25261440316614292012 0.13665781468313392688 -0.12347396823699517687 0.074250033382345953514 0.1731045875966433778 -0.14296412987648690618 -0.033444653988664578559 0.11447230828041485284 -0.26555192400507438011 -0.1183867998567780383 -0.21713489281230838324 -0.24440574183806343389 0.016577795509677410724 -0.17575820882924719779 -0.16879249262177728474 -0.15154773551550465571 0.15768885667004561846 -0.0079326027114411546554 -0.1522411992935769065 0.13310064756462106073 0.35061699801336843052 -0.27863580744509974796 0.1126632001322365878 0.2170605374109634278 0.19197089308435008603 -0.26673916376151085572 0.23714629881356408259 -0.08921821148428309145 0.050791648870119714132 0.27021457715143054612 0.26167856800059929867 0.25478777813320935275 0.25908620400310478082 0.1094491183813299795 -0.21571921084139025759;0.32575642048695774289 -0.069369832407612880276 -0.29205676699919219663 -0.25017782668188437434 -0.24407159449848470079 0.1913181757255186799 0.16603813017351060077 0.083380828245831539736 0.1083845280808427014 0.093216117439264556399 -0.033040352334466227546 0.10945344448464984499 -0.027942338430934871712 -0.20614373943190969496 -0.22315403479925668973 -0.18856580775728054578 0.049394329169935261015 0.16129600737018415235 -0.08375526418127902939 0.039438438085747512529 0.14450081843983914043 0.16921062917870227649 -0.11544389124201021035 -0.16738424335278662136 0.12958755761055221201 -0.28232273589752027165 -0.16311241499709380753 0.25081170230042326708 0.11892896178651478356 0.23277765585067813903 0.41469688321413294974 -0.02903126278562478263 0.29615082800513120587 -0.043468171905631645957 -0.2572905277538632407 -0.06577091884787397702 -0.48340535680421742315 -0.20809058294825064084 -0.024536693252719982139 0.26787088030259831317 0.36814034273278312126 0.038722379005112807226 -0.19916074627933022523 -0.024496320262846642268 -0.11614623412810035075 0.35949922881047163825 0.13359125748878963869 -0.19709376950193313593 -0.35159017057695240993 -0.18884589479355481934 -0.076490651672187964794 -0.16209217945210421807 -0.097884086294952724061 0.14025450749878592971 -0.47437653946153407469 0.11170714757047948973 -0.14246020001846801395 0.15671459131222359451 -0.09879214988816187315 -0.16730266074832034207;-0.10576212171398044481 -0.32161614491160189777 -0.16501128751460797384 -0.06355675820031700396 0.10367706810008976703 -0.23791288987852929337 -0.12402821106520232897 0.1531265865519654823 0.24568067222824199747 -0.26646631038819024173 0.17554593398976742202 0.39373846253243638404 0.13680451703229806748 0.30256699720464597103 -0.15554462146583913906 -0.34683411563274452183 -0.34843391223226860554 0.13055394884394663779 -0.3335347353639322443 0.07085857783753930772 -0.005736789936702083037 -0.13429425017571622325 0.19280401034631750035 0.023689768210934037534 0.011212679398354857482 0.1343726173723107653 0.13366917290983393318 -0.32387478300804672937 0.24599091263870240254 -0.043342209613174205451 0.29835398026032156071 0.019528242670968802563 -0.24993739987045301976 -0.10895900245421048791 0.1527698778201122265 0.23981503516132574028 0.19592525306461069934 -0.11651497069411262397 0.21227762118291157445 -0.18781054078267531149 -0.055160114955415853744 -0.14392443835997886792 0.12277569478687659632 0.15136432923174789056 -0.24508145860510033298 0.22003618432058286158 0.027204263890482863891 -0.31677628774318017379 -0.20492712211574246051 -0.13456610827547554887 0.27012634182820599582 0.12321175047839633132 0.37300999619417068986 0.096403870780072273283 -0.18475438567804586265 -0.019029834338490102946 0.096554930770326966027 0.11088559110913694117 -0.14282182630856535277 -0.097011292185345723849;-0.29857784875084691922 -0.38720634596825082019 -0.31646486584998828606 -0.42404691871541172477 0.31433515818606821979 -0.025008291346012369999 0.0016160846928655195689 -0.0092073542295478504049 -0.071667709553230957154 0.035937333737129768807 -0.045466774048976747735 -0.35362399437851366191 -0.15873355909791611595 0.30541065752165924563 -0.31070063542102799303 0.33388802165213532502 0.46724683276663531162 0.0078734281162424445133 -0.21327375225275116422 0.26743067883766352688 -0.045904610481949971457 0.17609576897932985307 0.086022730615184783698 0.010867497948317029338 -0.072387491381423890724 -0.19374597505448903911 -0.041064200647491597151 -0.23827088787373232326 -0.23932288492739611785 -0.30040591027103508148 0.051326929132814946843 0.089029825100355092227 0.19109488470960778184 -0.35175662326830697824 0.17541317244899595762 0.18507930958519966391 0.13693225497079003494 -0.03144632765175968403 -0.29956912840678445731 -0.30091501666402847848 -0.057517355485654272917 0.072030855318557351907 0.13766307344636619092 0.041211626430077863414 0.099141677289793728178 0.18626928941406711848 -0.20025374252788033513 -0.13689227431277364855 -0.15213546960350116111 -0.25410421433884672338 0.34492854162988845212 0.14473022056169287941 0.28839948845847396264 -0.068882688149220758222 0.26818878746477359254 0.25611758793050887206 0.25714427849085297328 -0.082233223942487582159 0.13134184466486270582 -0.071289331454700746726;0.1072555304785885455 0.34078239061690218659 -0.25001642006103030891 0.28400921187869165863 -0.37553946274647459491 -0.11274759179843947543 -0.15561366595466472051 0.11676819028032089931 0.12464755748446197658 0.051308658413278369903 0.21423967490563594618 0.095286000211583496422 -0.46141087445481115958 0.51231107386313001761 -0.066952057493307057245 -0.016349049551359431248 0.17413931336781737769 0.033279670449222642503 -0.15667402158874024765 0.1098969596896827855 -0.21720952901724963069 0.18422121805489494184 0.18477304614273276639 0.072528462939876359172 0.0094351124405637250975 -0.22739392201615102329 0.0042555086929998466039 -0.015310785619337958022 0.15066905145492148765 -0.039653178685102728751 -0.29825603758653201902 0.11456063282480108412 0.23786524102459707941 -0.052538037673182026721 -0.14988238957989327704 0.042337334780817359459 -0.21334129508611077153 0.32776936880969209653 -0.37363888891255536695 -0.25573851189660984362 0.18623017914946876639 0.45700431618209164109 0.20094861409705630506 -0.12299741398858443642 -0.31062448281489790647 0.091790108522288096915 0.19054851461959010361 0.25923588829489352392 -0.0063802373197052947643 -0.027393701092545203607 -0.075023253612178750216 -0.020803500348456047814 -0.20632236521573707466 -0.37524271421557930939 0.15370844932186950027 -0.19387815550540865583 -0.16120090460795963305 0.2526807627789565136 -0.27098817485363313473 0.18918495416825514832;-0.070358081560178087344 -0.12355715872046670045 -0.088586484298634651791 0.15804723008509316551 -0.22310802263394985401 -0.2504314686172381399 -0.097747440033977506246 0.10492573224197881965 0.17715488857538971845 -0.28617044653153006495 0.21341155260078775724 -0.30164238751900052105 0.11272020224197526472 0.23459398350997470728 0.29656788631294778158 0.27010644400832073408 -0.23123885201459298822 0.23564780090550982439 -0.022387229654640142251 -0.18331919085939588077 0.031849957191874340989 0.10012627099476634207 -0.22751606197602172732 0.21061658681972383889 -0.23203465228529809861 -0.28837291488521754612 -0.09244047721691113495 0.051830972054978573238 -0.04991463416834923672 -0.053269965367388726063 -0.29953825076984469389 0.065855110473934400095 0.13387014625888959962 0.22697709751362796227 0.17601061022621242169 0.21823591159490601799 -0.30154195194896499244 0.1908115186731935975 -0.29017213176448142242 0.056141662656694540923 0.063196104148671203293 0.13542632296762566191 -0.20879362266401155224 -0.14447439926062688453 0.22932113024019432079 0.26214811068002652483 0.29333258029590375537 -0.053796037358684600793 -0.18695393385529979202 -0.26308708615634496253 0.062918543140605728836 -0.066743282193860345441 0.2498303608992813174 0.19994011144236600863 -0.30315202462933293903 -0.27302275769058698129 0.036096570320743641413 0.18732978205050429543 0.14107441013693702847 -0.13057817755618572608;0.27763756878775025516 0.28261647589211308373 0.077651285462974478646 -0.004984317071865860746 0.23560890444563512003 -0.19406345653736914447 -0.018439874967014175527 0.20262389479105907819 0.27845102773131269469 0.034683109825276378646 -0.31087097153286924467 -0.047590230522027640592 0.47484311372703752463 0.11994153568891270656 0.16375485863998648361 0.32563028719249204057 0.13826344786787420071 0.10190781012044917986 0.37687363731157613733 -0.15352526977477973236 0.2806933139699856472 -0.22703061312837760632 0.21911474354106472151 -0.3871093689199823773 -0.19133484806429681968 -0.30634092914309990485 0.096212621400146247641 -0.34169415649226747567 -0.10183917424995408973 -0.21129334700920857082 -0.12421108163130835378 -0.040190090564841081389 0.20274511014842880319 0.23997328526948613625 0.24268691312196835619 -0.11557986076814259768 0.030764063873342972072 -0.24524281967085415079 0.25034207569930999604 0.26001805575813324856 -0.4208392110987833612 0.15961690269017153598 -0.30251208335808582595 -0.27084259974246832625 -0.17806310714742545898 0.066412366588964044656 -0.062074643516543598354 -0.11252810199079033016 -0.18513982894424116377 -0.26206767034011224649 0.13144187678777474737 0.32470133957899616206 0.1478222923241357678 -0.13091513100772428357 -0.025549264768518441943 0.14819218079499721363 -0.42265653478326109527 -0.07250786904314518444 -0.3139121159698396446 -0.06619760866592640236;0.23065308227395259211 0.10247709676467352258 0.059296343539676679701 0.16151187303821476493 0.070513229547679828757 0.26677347742885443305 0.024721219998466659185 0.30793500538108742326 0.33503144691601355332 0.12577532322722589919 -0.076977702665517844238 0.40377643836127302679 -0.01104358709554354584 -0.25621103410774032083 0.21416593570999678531 -0.45801109926137811845 0.036798888477193869573 0.18819365172874297221 0.10718399413819064414 0.0089076068170904822846 -0.25645634779476456089 -0.037711623343092491589 0.25453184616362001247 0.27328876538449908828 -0.13588508297951026882 -0.20548355074355126315 0.015045228454110878141 0.023750175253695313127 -0.25304367674858302406 0.12549341707511293964 0.44374005047781733824 -0.20700534514720356216 0.21077148848487672894 0.24596193734455898405 -0.17229666888079453457 0.039167704856362201005 -0.32186330437837817886 0.19418988061084274666 -0.19111268458377961288 -0.22482607504622831307 0.2482009870270770191 0.089846138529714000831 0.26555090833885613977 -0.13982794897217457053 -0.20811667980578629766 0.29587826020279578421 -0.16170681006101639277 -0.068363373749294728543 0.10242835212685137691 -0.041756210239960303565 0.27237086843796320945 -0.36358638468889137307 -0.020307024232933342661 -0.059122962107970057632 -0.34190288976012217503 -0.19412640093357755311 -0.075066912733418783565 -0.33222234984781390255 -0.33273035833055430999 0.1692525759531665619;-0.070979605352626054526 -0.23995152021239132822 0.11372012152030308574 0.16781393233737146309 -0.35279756761279029709 -0.083416166322863874449 0.12443411829019998538 -0.41404415333779220898 -0.016275792136948005751 -0.21647856409606772154 -0.15108379146932360282 0.17417967540232082158 -0.17864182320286192684 0.080874768903325525149 -0.044555220175136606153 0.25564914690960810484 0.40672246546310120152 -0.23829029945051266592 -0.055355260448409951413 0.18671346205698857723 -0.026482329382106647303 0.35536988326013280171 -0.15279762885254960514 0.079157724182701033611 0.017832251616327225718 -0.1871484749102781675 -0.17004544559783543733 0.041662677228062022783 0.41535653189011573216 -0.21243894289283032917 0.06005143981811256193 0.10668054421858011449 0.26252270963427098982 -0.24373754620735027521 -0.32650979203383101446 -0.45953644069905741354 0.23869635173877779 -0.10480999916216214574 0.30350027573079163545 -0.094421542208815739672 0.34304832805486040748 -0.082846056702474052402 0.19252074055970971878 -0.013443761719800563156 0.52870399392907663216 0.13911006533736958168 0.16180780378638756623 0.074000570383310620981 -0.321228027704721808 -0.25647589550489646726 0.34599794548745477218 -0.21346325184753614512 0.3339196807755415719 0.14103849169649970707 0.27135512496195351995 -0.014982962287548438896 0.4013934285915677358 -0.24489536898614402971 0.48972498991254753697 -0.12726049652067822349;0.35236918331320166153 0.19519753193142302949 -0.31926439620595420399 -0.270143382381264896 0.27192270291973574814 -0.26809405064883468084 -0.13343778997164382205 -0.12592923512736015068 -0.049938034399904573934 0.13053177220576422934 0.33363346503413299216 0.033486813237113915998 0.025393618493143421677 0.0089716552228775205136 -0.11195710372353115392 -0.21691773828882868203 0.12764713384524747908 0.063104430862884336451 -0.16304305061853574532 -0.43300713519851491418 -0.45761982766104952747 -0.29567612886171501518 -0.18887644618584695233 0.15160776813323059709 0.21546866836502009956 -0.03703281390459281508 0.01632444484285296496 -0.12264173921632541553 -0.12021827835168166776 -0.25465652305017721924 0.13284742072006983094 -0.014832690250972774618 -0.33145949701441751456 0.15265213464645721597 0.2167626676994015289 -0.04029359803183869132 0.0849299662604341421 -0.32924652297636186615 0.12214246086453267592 0.07081857730611476609 0.2412290223039892656 0.1872685930309122837 0.16522594147888572391 -0.009244761484687866876 -0.10117936806972221975 0.11419854170173027175 0.22771637641596365054 -0.076920455608338544895 0.14048873962787111758 -0.015035238840487040457 0.25577193131937164816 0.22264254084755008556 -0.21227996056149575632 -0.062809367399008692034 -0.42021362588186106368 0.13870278554331055831 0.2564679449523857846 0.23830208678513606357 0.038396374067735335178 0.040128288497535746782;-0.0027908710236713052573 -0.35573681504273652054 0.20972999394368738169 0.012040989750652764112 0.064733150277728399025 -0.19276913323860525584 0.14346790707542203536 -0.076021147289250107226 -0.30075442090736914658 -0.25677557021699531914 0.14480427429827338881 0.45820434727992859214 0.35489788344339950887 -0.43389896720192777657 -0.029251791850339714518 -0.58695875342677039654 0.23894478273200803198 -0.33949854472342810841 0.2327220439690198539 0.09544247188787188807 0.14267912852090366971 -0.034209892716777358379 -0.11765176110319219838 -0.1168767673518854161 0.050845746450638933112 -0.36526488409989743555 -0.27600328002785173842 -0.21012487660718143223 0.25657657258466709527 -0.23732206890222282136 0.27670359138115713238 -0.40625765041900346874 0.057564485601829785966 0.18424983725849233829 0.10978175157432672193 -0.33453788785815857798 0.24055931895426505007 0.14984149369424465403 0.22173043775023398849 -0.059305461282578797455 0.25648812143405524955 -0.1495638161053561288 -0.066115136771313851027 0.35885854244466014462 -0.03211277713851727611 -0.19522771203477151669 -0.0012208713442972553113 -0.090951881969474637768 -0.098426829091612919043 -0.40438846670458550303 0.093003452562196289866 -0.020540297302640321553 0.39887903973000726765 0.14354756207661337197 -0.23923536393814176515 -0.1522418054895791073 -0.082466146115989041876 -0.24559356925486694467 -0.083405157646189692633 -0.083341338129731601381;-0.37778261251503775231 0.056893415489959325848 -0.11620985360860155988 0.28167354813068479213 -0.073333965940279369211 0.15540637441004240271 -0.2839691373006724695 -0.13033226616658827313 -0.19736166726087234213 -0.3725015198514133874 0.059987663781196146062 0.062142360378827476985 -0.20464311775223764656 -0.080072449862149633337 0.22464444393026378188 0.26405945042285022817 0.24140138728230317589 -0.06163347153526464034 0.057046727878869413209 0.27104324383751365879 -0.21910131917773731369 0.40745933133495482181 -0.11009354572580036524 -0.071731501249610862825 0.22024550533027636989 -0.17910167118379088924 0.19132640408643014629 0.028499781390186561952 0.090472080354506573263 0.26358750251422990996 -0.40381147450164661672 -0.011462390816524229559 0.18432947603621521737 0.20369938938065862422 0.22718799145104467962 -0.12739392405728142132 0.24128244995683265084 -0.26193160082189176352 -0.15889390390176885703 -0.31745040720518291621 0.16809574514590427952 0.20515536782206106325 0.13195834165126638093 -0.13379679361693119777 -0.20976497200848054359 -0.056598881524253720487 -0.20583269977902449166 0.24367487097517415151 0.24082853070056484124 0.096463060180205950633 -0.1024312125589821737 0.18146260419745496861 -0.081308101275218341852 0.0023110496519628404011 0.058019854181313383623 -0.37308200135194979907 0.077087317037646110873 0.018129201041179644066 0.33961226527963322974 0.099489856139142393565;-0.18524153371069432272 0.12201436253402266063 -0.087296981165562226312 -0.22790637468684404876 0.23701725138925738845 -0.15768578307469754973 0.19554203224387806115 0.32002616003738254546 -0.25431437800427569851 0.0767971970677799598 -0.17038455673698857384 -0.0054240192227689399893 -0.090116390901581230888 -0.24772439930134196318 -0.22813900262749547965 -0.34532513873093484413 0.048671111088654461785 -0.32529666033527365743 -0.29742829157893274639 0.056633026787345212838 -0.12182112433078190472 -0.36081549947438840142 0.083363422059634581518 -0.064224430161381726445 -0.2634686578605424101 0.14841189075692096111 -0.10588264496278200488 0.00068897189890063396858 0.11213965654289449747 -0.13234785304193269484 -0.19205744585176287575 -0.29475276590076188166 -0.24577777323947916366 0.1262748190875336296 0.21305246357660195811 0.18423593192102596938 0.059507701781713398526 -0.049532301051375390855 -0.027678659620401054736 0.25222072688807201102 -0.2748273759780633374 -0.083308855069287229833 0.013373641617906443374 0.097677085781836467393 -0.10980500521772627864 -0.32778331510436531371 -0.25501529774604064782 -0.31879533303298535074 -0.32235738377800216004 0.018100517719942293277 -0.090084195845851519624 -0.36461688026928718021 0.15766888832971021062 -0.15984109628229378752 0.2052564778622043562 -0.23366090278656534429 -0.073241579256839522971 0.029157838833456121985 0.33294812688275060575 -0.12087056539012386303;0.1319572144798819846 -0.32533382211130951189 -0.20259110629930429659 0.03262921360497626766 0.13906118868398645305 0.17759817972240998785 0.1977782332399284082 -0.35861109489733894451 0.039283825512961029203 -0.067638020910067070401 -0.41795731347554593293 -0.43087085247654655085 -0.20346831507736554134 0.31614391048274104179 -0.13089705308227966851 0.55995059470865105045 -0.092251428111550834443 0.30102022207621936811 0.31689092518458639169 -0.18845770183475687998 -0.071176281718829767509 -0.14302038617359055794 -0.13369321731025304856 -0.212054785456137318 -0.24322961079982585719 -0.24261219482016557758 -0.22037551184797060655 -0.035171572140168375076 -0.12407176864638137792 -0.38731923748955521258 -0.083803308909375984204 0.38495674187823281098 -0.15447798045850139048 0.078292832900296163712 -0.12140979953403155389 -0.334426305250079825 0.17633400291906278778 0.22865069125096015856 0.20647661463219538214 0.0059130720825888178488 -0.046076617574101315367 0.11942364574937081034 0.22887780416099104408 -0.52078287084559626852 0.20290434756836123187 0.14510673779972382835 0.35661816886517189173 -0.091247053680733422598 0.1548289873643954595 0.069654938399295776574 0.063726857089580035698 0.33350171758804120214 -0.21557976782423890483 -0.13016539723653883232 0.22680427969541816502 0.076721201619980167186 -0.31428375215086795658 -0.21627435484098059271 -0.20411075110911999775 -0.26053025535869334117;0.35807656588142544596 0.17139718394818684311 0.31501690924911562863 0.032823627366135595118 0.22420939387899069262 0.24559796303975284237 -0.30624151101193081148 0.025238090339004908697 0.02492628236632798977 0.29544215001075901927 -0.19245113086261239621 -0.17189155815742709899 0.43327615488451898251 0.15759992747657006196 0.091546094108013856272 -0.24741938706765903566 0.26672824988430088311 0.042491566849871022227 0.040129473296612767907 -0.30281830364314815673 -0.059665931179295472742 -0.055966350881373361226 -0.3408194454966064213 0.069884170168565629133 -0.28965288573946451622 -0.083599292539146566328 0.16024884582069304217 -0.0137586632585634909 0.13522858815332744475 0.19213651297333059209 -0.038941383789930894554 0.059841211448127762385 -0.14325869869124555067 -0.24980866177992883115 0.19221371049939173226 0.20227958563346254417 -0.062462076185801768125 0.061870989826604591566 0.34333612967956078643 -0.13252106787132558741 -0.51758572611013442533 -0.160100183005781882 0.0049780627629965193762 -0.25159787519109477749 0.0082497003595592786201 0.16265439554641145103 0.12193773707231615744 0.059370917216934666893 0.13484605699671420309 -0.22826200463779480754 -0.1403982696940758168 -0.036366243336508022321 -0.34628619235139579402 -0.016263279047078138539 0.21034510127503724952 -0.21316981068735685323 0.13044558840686548695 0.18532182232725469273 -0.21759497491179008444 0.18196023439783179376;0.077292246194756275557 0.0085289032813584964021 0.27935238346554602806 0.33060814649223702055 0.32414260759205587581 -0.006248432777837999684 0.19813955546738870606 -0.054938551982286129571 -0.27154891305630618481 0.20185980912999265668 -0.098280084465368539037 0.32524554174558450992 0.19014568271512213848 -0.42131056315327453099 -0.18997947008439688976 -0.54631298195010102869 0.21680993182168314948 0.26107039070133730707 -0.030674274068211455219 0.14741163642401022837 0.10406669928173338524 0.14224594761350076166 0.37187030548664185003 0.4311224153763590361 0.30879626832074758003 -0.070567835338404327761 0.010366312983743918713 -0.2941671472410635757 0.043107334642444324058 0.10201331212101658052 0.44641921284251878665 0.15250234771477835793 0.20678782190406547192 -0.028120551965483610302 -0.34408776283267472618 0.049539855504592555935 -0.017359705034886877689 -0.33419348877291926714 -0.13582399562790989367 -0.0014233330724634151929 -0.06103785521281934745 -0.24361422778163727143 0.12896708226912412254 0.2597646990544117962 0.1905744579631616642 0.1038532056093328243 0.088940125950806525612 -0.15976626546145658581 -0.12781674706195098046 -0.17661135710488157224 0.17813430904008498157 -0.20204155466598092139 0.13857929777231703383 -0.15996510396048790881 0.12132712141027179875 0.29574618338700781051 -0.080646802685870058736 0.093337314118880770897 0.14942809306767251831 -0.22364848561984945752;0.17569154745689247177 -0.14950909365123465911 0.1688634658175704184 -0.12332324353458920529 -0.10899231768741621251 0.2665831994650095238 -0.07833327805614903605 0.28780614557795913822 0.10191287366809631543 0.28623200693409195372 -0.17038309511500296378 -0.21738279413415512176 -0.099577169659309072713 -0.13655907019892199461 0.22263038546416466512 -0.19645497610966297652 0.11266793419105711194 -0.25661590793847244285 0.033436252575973650358 -0.33245042762541848758 0.11637362190694437725 -0.10405836892411680916 0.026367005756210395301 -0.41848655774746212899 -0.43205110504215105127 -0.17258501994754493758 -0.06460807865841629305 0.26093906236792036024 -0.46884604087621933877 -0.33936143016525566196 0.091634520960728674255 0.090522339726362407997 -0.3860636675180890709 0.18513546005410122519 0.1486845543331903885 0.1295438747980551808 0.072364679894713276886 0.28978452681368149779 -0.26525077777731903561 -0.32939252167947924432 -0.40481236625644367866 -0.13786938683775742942 0.019405015023132701768 0.0029709359687395990243 -0.026796817548667303116 -0.28198162755001138224 -0.039371226237159627492 -0.064295561381891880304 -0.21393171146627881773 -0.31133345291172348501 -0.045935469806217280042 -0.10812527670829014115 -0.24627312455201352814 0.034454795029443312238 -0.16452809859497793954 0.11408323006583767634 -0.31835073235174865536 -0.15755743485952045102 0.25699054566726542426 -0.009654404238105849384;0.2598346630175692451 0.12889788760904005716 0.0028461963998371564953 -0.1160342211266865986 0.29301067048699547257 0.10707609591852558506 -0.23703810970960639826 -0.15769935610616811483 0.30678012955888900315 0.18448227310978021487 0.19709890593766252187 0.19661050803651611285 -0.26545012563506098502 0.1007281390622776357 -0.33135561121457196565 0.050336946164537439696 0.11938844369502117637 0.27583994104136699832 0.16000343969007618794 -0.19562956420995894491 0.054714037753643945949 0.071820972063611501768 -0.15741862483613827672 -0.10120317239478501814 -0.16946706969747460381 -0.15420629340350969216 -0.0010843614594499171797 0.0081995653656777890694 0.031513932130725189062 0.28360872819708937698 0.35011936095262924384 -0.26153262752349826226 0.1812777757982050042 -0.24237408096166290772 -0.092969149708245157893 0.26415426556102050704 0.0085796553574964892763 -0.28021941365810359992 0.18243925152655668387 0.1667825002627976172 -0.167059248319230913 -0.31301538300506642765 0.12058429185235501613 0.35065772370285741566 -0.0053404327656163862528 -0.28309073655978483908 -0.28430508821427474819 0.27599215406679156182 0.14366551085479953298 -0.24786871789440370617 -0.31721799423240426563 0.22196242757133127776 0.068193175448230503033 -0.23146986622613094364 -0.055483443703450492646 -0.031803594734988220594 -0.19201247078060501572 -0.015926379404863359041 -0.1491038778168704837 0.078099336346538289488;-0.13695007589656241209 0.08161843043713340462 -0.0096358234779451643059 -0.198419634412269702 -0.3097481173747634875 -0.0035870565620562972625 0.00044789797166853756623 -0.25117572781269453808 0.016490463617081455722 -0.0054380469148096318918 0.41240475548725974431 0.2810697936778576711 0.11659792669471021054 -0.46670945695144089305 -0.12902899965054259734 -0.078727241570994574427 -0.29743445405704166395 -0.28061822150083992611 -0.33681375726425460959 0.20498654447264025302 0.19492778373016370064 -0.16874166079769034599 0.29140458892182796724 -0.039029463272028053211 -0.16469428183736647964 -0.012653923776331926776 -0.020714697941322676722 0.26126915682566698163 0.033416371367532074488 -0.20861026087134423856 0.26897749407063908933 -0.17607943354247537759 0.071600474215935280831 -0.10047458264961199592 -0.49127957595756793774 -0.059209531375911131357 0.055694308495489244781 -0.24283325177881837087 -0.071205338179403887544 -0.23561768524402509906 0.073416567936977830677 -0.16199520490172103493 0.014882132136570073999 0.37538629441584359103 -0.040984840563590356488 0.31282255140056403064 -0.39678596600933863092 0.093029225315380367767 0.16052792656744963029 0.30247759636820420459 0.19872123720334028407 -0.17651969132932709972 0.055963543142438801348 0.34703053977979453348 -0.48728290173992294676 0.10487137504864864346 0.06287284188057143397 0.23605063818012186894 0.18151589734317508107 0.18648473187003483664;0.015587090255777980019 -0.36682565509510400847 -0.049327444370851583622 0.20578758529248750153 0.31965155487623775343 -0.10253896953199158337 0.1954078792463525005 -0.010573121725105265323 0.23366315540221641034 0.27817101423918949576 0.29824104952035385141 0.15504101048812779506 0.27207068673833900707 -0.28069898707887169786 0.18450593829165679027 -0.25576347254027625988 0.18708532188530782592 -0.15159048569777666682 -0.020988151958411218473 -0.36044133432833586062 0.20130547952080338203 -0.31261986288399801204 0.12928354463616684167 0.33630401505284601704 0.098363378764556641531 0.23597578162501373078 -0.13009249721305585212 -0.10928856836817765763 -0.34962415653222955747 -0.065231460648144251602 -0.11837076876232986711 -0.081786743520520760464 0.018184282300778530084 -0.22764961398690142236 0.12676704215127063136 -0.28909191768099923303 0.056280339359349555728 -0.024458006953162560182 -0.063946017743455832449 0.078417712241175163701 0.29107229805825474145 0.23093172082767038367 -0.11065117949859222535 -0.19908734270041647529 -0.1156278038756143739 0.0026495939258339017315 0.25628806628074002338 0.11102310996896133655 -0.12075272474091292008 0.085155060602061904973 -0.017353590007320795346 -0.059764658147831238588 -0.19439836467940588283 -0.015949781541599927781 0.15540504542367658547 -0.30573922626519889345 0.10177871214524440713 -0.12614976844037706361 0.089994742310054318124 -0.27927258032042040492;-0.062077752896779518632 -0.31516738558104023804 0.29371790907862804776 0.0016034251762457566066 -0.045977359065555889472 0.28980402893908069339 -0.34064147411207051919 0.0049928563355402730273 -0.27087469541351971714 0.22041569858455517528 0.33386681085493857823 0.10711782459064074502 -0.071993380462118658492 0.016021379964031967624 -0.050130324698700823305 -0.11927975100032799094 -0.12208663283303934632 0.33140266238897386764 -0.24763777790982621774 -0.074620180610178957203 -0.27144902659238129283 -0.010151816370243576387 0.27764872041524613078 -0.036529670333282214523 0.25475012246642347868 0.067648238272098593082 0.15496607540400295089 0.0014322922976020126349 -0.22238790417805820443 -0.067146806298711739225 0.0037786506634905694946 -0.092768031331520089955 -0.052266001995090717591 0.0019541331275917152299 0.19770316547213617753 -0.31723530424675711048 0.37918656008472562124 -0.10216708231677180951 -0.15573054966072563676 0.28662850557875380053 -0.2834500033903584737 0.073007497964482373498 -0.028431341752980784227 0.14317078432977956015 0.083963859503117507788 -0.36511615328198410158 -0.15856337246737559066 0.22673129158217986134 -0.048592260966726169569 0.20875797929121187035 0.27992480941475927914 0.15890472479717798748 0.24887451060093565558 -0.1794665813692731815 -0.11445581817400156399 -0.090996659855012665408 -0.18581441890885552759 -0.096988892903497270215 -0.0093518853075434411198 -0.13321758601063501959;0.1986701331672736659 0.045155471725193706278 -0.081659650267157796177 0.1806514799803655702 -0.24930345565440387157 -0.097082668050999215703 0.29583116757030319954 0.16443359622631242845 0.2494266779581794935 0.070883945376436358066 0.11196256425257895828 0.03858624214275786779 -0.0022966251524657258637 0.034763337357536241989 0.051343421673901025459 0.30082335705445206742 0.035878035781958445005 -0.29656469622479286752 -0.31239429047209876789 0.24754656742674924219 0.35053699646996649975 0.1502594878778913956 0.061310236684671733098 0.076496225370156017975 -0.021921858478234152595 0.23459298942056069914 0.090837890519188460581 -0.16260017016715450078 0.13058294608144344062 0.006365364580524415089 -0.27192779435217384609 -0.11987869128868566815 0.0084172394549571344369 -0.22275703754210582352 0.3461840587357093435 0.25490160301822123445 -0.089398302718428385161 0.04215513324039994042 -0.019321670422854937688 -0.21757899895248822286 0.0013540929605927228691 0.15195619442040861347 -0.13549828441129627143 -0.2440454900743659894 0.0309201853453817746 0.040129281578963470201 0.30058103921783496659 -0.34462100519677518751 0.025421451061289013218 -0.21000284897874441081 0.33763814760455901354 0.30787126099637657228 -0.27914607125382123742 -0.49513774894529810622 -0.1853161829614972389 -0.056217073937569056463 0.16508462992563363581 -0.078464488200082782576 -0.076270822418879141713 -0.22609321063317669442;-0.30143686175133910243 -0.30258549102584436641 0.26164207453238513823 0.0034526480950680888196 0.23957366897719906129 0.13876977233155984859 0.34084392312214573106 -0.15821047907299629065 -0.25775246613506913596 -0.25320855451308837969 -0.11966721080389661203 -0.18191217198743037109 0.44065597310793719332 -0.036685392086956057633 0.10571327280820516648 0.40043550193950128158 0.28719141059408537231 -0.22175457236577875153 -0.21536711342834186089 0.31537887132441827509 0.31230459702324059323 -0.20725312064851661442 -0.1268884492358834104 -0.15669881696666404514 -0.062461436628620491118 -0.30459396233956032018 -0.21015707062658553483 -0.13559439614097179572 -0.26081418184311877528 -0.086463621634007295502 0.25919920565252613232 -0.15864809976901705912 -0.31561656592200210136 0.068679387208172418267 0.36717473312905701821 0.028288396823438696076 0.16724884830491232313 -0.12770845521052937022 0.076512860447696826038 0.13048829004621870231 -0.27907486315849217018 0.35170046349507921857 0.21459748508294332336 -0.0094161325302808043108 -0.30985477288786045236 -0.1860804090331846794 -0.023020217338514240013 -0.061394236809352048523 -0.12751392337105144081 -0.18383766739770787679 -0.26790369848997280799 -0.11000511407055363344 -0.12180804429199616756 0.011219767006194987513 0.14337754354401058277 -0.18614466338337978812 0.085360001513987954214 -0.1155784830147200265 -0.13890097879438165207 -0.18101419464668616621;-0.031175868100610217015 0.38869245185339629245 -0.16473236765124604775 0.023056478608531612295 0.095436245198677924217 -0.11239497874074759476 0.25328482134323948571 0.16188444374529675773 -0.21531830556560740964 0.22095401137095546651 0.070302855595080704365 -0.13341482032387697032 -0.18341454652157193617 -0.047491933049937984368 -0.10849526787145241657 -0.11369165788315026278 -0.33058334893799540266 -0.21796594980512384865 -0.34147898918624342013 -0.23699381960515233936 -0.23326070967552028912 -0.28087814338177485851 -0.078850674149573918292 0.29737925911573304116 -0.01515972114711131892 0.28567923965026348343 0.19570957807731242939 0.28893688420063545763 -0.035757299242661577665 0.28563141113472417798 -0.23627672249510017766 0.28408392035837870537 0.19619875439047723686 -0.21311232177046524061 -0.15543569279082747325 0.3212044976493339532 0.22353996985022886457 0.19126923509360643783 -0.046586425692504110363 0.19686357329492870649 -0.08594572594387679676 0.1600571748614732781 0.19618540742376266994 -0.11695446049107811881 0.17321185151046256112 -0.17756916988555720982 0.18450103451648314223 -0.26263315582989316121 -0.12165597468999841957 -0.11836522900020349236 -0.39263469428715153109 -0.12323762376143843067 -0.2701413902770683495 -0.017840012083605402693 0.18354811900806117242 0.30908699920475202205 -0.29722489878259639173 0.14819316132137164144 -0.098945228790232264693 -0.3270421346700926879;-0.084746321550542763612 0.091273831231278704235 -0.17389698833019306967 -0.22010098535043001733 0.25851751163814307155 -0.075141501544901664889 -0.34918532799550794365 -0.36079824456454734349 -0.052065566843791315221 -0.28140273550146532866 0.077559498047592947967 -0.22986624221000348522 0.040773523489772110773 0.3166057719228538847 -0.37920003819072833906 0.084564899058644643626 0.50799621078936829655 -0.19096493791107702065 0.33230401270913884071 -0.01688547092361067023 0.17596091003378452888 0.21565741882688818642 -0.037524152489919762599 -0.04135136829553888449 0.29401620718482657235 0.23340575846862948728 0.13673071423633548216 0.18315750122615270801 -0.030151798542081383742 -0.39901889864881878722 -0.01389773626226054222 -0.26899089669634451694 -0.37760065206102860769 -0.10999931435189574946 -0.18674929904602918795 -0.10481377277063416709 0.38374731734977635123 -0.027660329411750544243 0.13545980939305765633 -0.33385535605837707296 0.23631468848306963482 0.15803552308010138105 0.18752337899669679899 -0.032787133255947897847 0.47511557066340581734 -0.21645939806826997032 0.25809852159479262923 0.12805487228727552296 0.27468323983388032161 -0.28247826208872439668 0.12058231589645154735 0.067138839587758541994 0.32467558950899588766 0.032863881695927979476 0.33676238916493878017 -0.06611917958676491458 0.38851086759905201218 0.30602444453987004414 -0.048278871765834258101 -0.37181057000885237018;0.35027892408679017766 0.00053070114845842238094 -0.10375010236607803971 0.31976908630767941766 -0.31303366742787502863 -0.12705750871122553636 0.21154278857951447357 -0.037992582807657340749 0.071934978821813641559 0.38096051387857454706 -0.27699138971763659356 0.50686046598220979575 0.33579432110659124255 -0.31462208479844078202 0.074817235989861605172 -0.17039044300345995708 0.13937108948704529654 0.13270416295836562348 0.0032348536556646937529 -0.24829712646519191965 0.10923774769281446861 0.066323298795171362063 -0.29213548100955333275 -0.14869387037957965125 0.10724100892927965201 -0.1085962879523043878 -0.12428940704241910054 0.36290786978047617772 0.2460475575645016677 0.26238739866217131169 0.12854057132141552544 -0.21249820476303729611 -0.084001718364685284968 0.2739108950206469717 0.26528381863040234601 -0.014906527316347116183 -0.024296142195264547325 0.23366643113583665525 0.33462328619285153231 -0.11434478243506350503 0.095772180458260525171 -0.01833596587020509816 0.16369087170485685512 0.19410340497534300797 -0.085101542795433013366 0.41978531844020428032 0.18002721774018426437 0.28286514290782988068 0.057196092916548833818 -0.1656078572784410452 -0.20616648913156312983 0.16367956460194660329 0.099309067609821305433 0.26483416114654800833 -0.08252689208163996315 -0.11354069842082516184 -0.46622305889858478567 0.33724075417666854459 -0.3067942469484345458 -0.12039015792702492669;0.16935620708427917558 0.046618603012277715081 0.37292221607997033672 -0.33308499972094446351 0.20575216328634635121 -0.06969821357600504419 -0.063558313198217475382 -0.25038514090175417737 0.33605631718791451057 0.29915160148054487088 -0.14926113797981943598 0.028342084606763157106 0.32495581585768823496 0.14730823399668724338 0.035457215110689790927 0.054848848589997806213 0.19302966985911945708 0.024616542051611733921 -0.10349624773427744395 0.25135371107129445001 0.18634760168394290392 -0.37690095608511159364 -0.027331888151382547486 0.13063082501098513544 -0.05707159122659126449 -0.32116381690632267443 0.26479969555411503324 -0.22743553582359191112 -0.054594281979208132694 -0.22364433687951537633 0.21999098653909188172 -0.11425676322984251732 -0.30839708791460235249 0.34039837487701818386 -0.14254060488368369697 0.29555831932442011567 -0.18540061549205560931 0.22155852779994519852 0.23541480518159768609 -0.18311965680031316861 -0.27048710361432576343 0.14867620583744914353 -0.23237054237982252003 -0.093209129470245316584 0.24306510207139758739 0.17771080778107981035 0.17219189554887526228 0.16243224646326370753 0.23743893962134338116 -0.076371930593491621497 -0.12914384406997297949 -0.15651636511580602207 -0.30141533135850845371 -0.05322010654661577661 0.071515027556526597485 -0.13877662536133034132 -0.054714328205697236596 0.10612721657438717315 0.0098731766180747346229 0.28586515456593553086;-0.18118643333090694858 0.021010487305548841003 0.30507045925130493735 -0.10255045454766470447 -0.16334246152716072609 0.24675394643775291903 -0.078733781249937712099 0.067852297319584461976 -0.24752591242216423484 0.049192268284921750188 -0.089436712523481981529 0.0041726109805544911099 -0.20573263427049626184 -0.15565247117662509013 0.1526117482009527182 -0.3630345158188983401 -0.39551469615202572427 0.078920133674536915858 -0.20751461630203843489 0.13102107120749778568 -0.36438617447805915495 0.35718992523294423869 -0.0090167108876349662261 0.3930018751689701717 0.038641295975232775595 0.21889433496096216691 0.25107362964992369081 0.29092684136333307743 -0.20804445651866307343 -0.19738609634244633217 0.29113110502024969195 -0.23497487006167278034 0.21956239080167008759 0.04398440103992603406 0.12365873269468109774 0.010806344252221228991 0.18289658840222092206 0.19693398446884616271 -0.36208762844382513801 -0.13714074125034927953 0.19639029767829954687 0.058478358755275877678 -0.051599238177617197387 0.4287090005905906942 0.37482537526410591999 -0.04225819382860272061 0.10163238921785706925 -0.26356211612627461482 -0.14808414281397075385 -0.095338319330349446945 -0.10213588669082852844 0.062593407209450904749 0.31351277852866432649 0.056821546136552422701 0.18091436045732389726 0.23221415190750216428 -0.18004867285218095763 -0.023712149957506034603 -0.1619412281631788797 0.13586412624485491585;0.2602422250376742463 0.31070524323191722749 0.20874997192442668048 0.17627788947041173051 0.0068298062734878303703 0.16059591033234399404 -0.25399387281006829964 0.34438281405801857149 0.21836321155641272296 0.32027586134961505415 -0.13848539788071728696 0.30867945918399741778 0.00051906511557851114924 0.01962406943605220222 -0.35021583242178094819 -0.20981534447721461589 -0.10960198948505273098 -0.26018748556692405938 -0.32920811058906451763 0.16472805555122080334 -0.34873917765986367501 -0.40454832489888586933 -0.23672974737356453079 0.12882665020137995526 0.24139654457210746319 0.090593923590518987687 0.080996161438108491004 0.43907289292942008885 0.28074635593621061203 0.082132674206863154343 -0.13468995744572243023 0.092955708046205662298 0.33031470736210727379 -0.16424774607364373002 -0.17094462411384098166 0.2630917660778495093 -0.26499345412683966705 0.015039617448741979255 0.10011336726791493501 0.10692616857111256201 0.030340423455397377839 -0.22977069829635149434 -0.30679987604117442412 0.098293688192429271022 0.11093492125385433222 -0.14473857827522915165 -0.3198170806830844537 0.28261836800524697821 -0.29281562515640774391 0.17885002818591275164 -0.51547681630584007983 0.19619571749246836334 0.017075067729233426445 0.090709179500064213153 0.066373925109370193742 -0.089444685959312042467 -0.23669745888678073165 -0.16895462210327383268 -0.47341817312152245645 -0.08271064783594526959;0.02107594631653777334 0.21806703274978375684 -0.19875494093786424954 0.10714588939936321721 -0.081299993650713997528 -0.34492359799664212838 -0.07721080084747311556 -0.047245834609038757368 -0.23830609469152400082 -0.03689759626204622972 -0.24896984105216479755 -0.28693646767164943112 0.1630307541494576129 -0.35095192593237772849 -0.090279295136990164727 0.067429142617487447531 -0.11583455826258529098 0.34824558406725764081 0.36055543624002056591 0.083046392938837518272 0.20073025912452055475 0.024474111160088858619 0.31218227572011042481 -0.08270172992276085544 -0.061654098546372729239 -0.019155237085648847695 -0.21054619956392769953 -0.29140711992045442713 0.19448037820503411011 0.016658737684261386985 0.26287912983882866236 -0.25850860259240648897 -0.25864178204762883206 0.15897721995881364254 0.018417755599243593179 0.2575818378190670721 -0.011545534428964075724 -0.3217456397657916245 -0.10448118137746457978 0.0048802530931428087652 0.16486675023046143407 0.094256076136059976922 0.17801189925482205356 0.085146555588318892371 0.10128556923432872894 0.27350666024766606688 -0.093320053174530209761 0.079244885632596614999 -0.17575986080310079807 -0.21598800611308180408 0.23752378951011601793 -0.1676200013323167759 -0.22206619957847259506 -0.20366827461844477787 -0.060777621157287270437 -0.083583064525788633436 -0.10813541825359547499 0.21452574166770396746 0.28221051513615513784 0.33740420725560255066;0.33181738807189892215 0.17397611410366192741 0.029199314351648783528 0.30674674626338355177 -0.17208203661872414902 0.086200084751184236076 -0.17710545602041258273 -0.34072056824789209717 0.28789679833229464556 0.19358376828425269411 -0.18357702277542006786 0.25929624191220590479 0.20358260163996025338 0.072020972801612154202 -0.054580811971308783315 -0.061371795594112710237 0.016803054146747861686 0.050839525802079871264 9.8906327493656167639e-05 0.31006656508919416826 0.11196788115328928925 0.11235241881048371737 0.016803083438350789602 0.12930457917297685788 -0.19620402068059877854 0.2971654322455032915 -0.10124204178727629067 -0.34009571331631910374 -0.22658715487130470789 -0.2198493597253199372 0.38001730000470973492 -0.029130126844059588825 0.02242448778075524507 -0.08583575134868537404 0.18937114769862620212 0.22762773046967746393 -0.37595832616669938586 -0.17061359469169598557 -0.0281364654992683344 -0.24065143169482350327 -0.007871082913603170278 -0.084464039660980233526 0.27447308847968104883 -0.055349307365460252706 -0.068088915872668992479 -0.25168564704260670828 0.11440212736231591961 0.0057776907240989416534 0.43778218726224371604 0.34971789885345250237 -0.22055033175220695174 0.10677323640223436441 0.067802015910373533703 0.45857923203414063806 0.20628043564032794155 -0.2685665567223048944 -0.37113969861372914094 -0.071039753862619806069 -0.2474157807858091418 0.12407713814693160925;0.028324018069307402984 0.05656124308638417475 -0.12120382046350974825 0.054454078618246380683 0.086617250909638426881 0.041140192731498638479 0.1686539564444565209 0.10679002182998638404 0.41018456293723953854 0.099849370128438683092 -0.33116323838737665719 0.46761972291059755724 0.45849041750289487585 -0.12635308365912420459 0.3160754874741362741 -0.14692435960308397602 0.19117439133275287988 -0.050220326110855376123 0.17373619740653678534 -0.068286742411906867223 -0.1415733686618658449 0.14828496939203486549 0.35717688559215360344 -0.0003003913801484698904 -0.14655181218666785137 -0.33644523493879963105 0.05134327482448801383 -0.26632418326538848108 0.14172586518655241883 -0.4189567023259969103 0.031373697826827681712 -0.23916126074243843069 0.37268973537212934932 -0.15697204507656142836 0.23858261141038872299 0.14359294590621957122 0.21098946779243935024 -0.11976093954211045056 0.063461764254504934857 -0.075958141636278980746 -0.0092916262079237466748 0.085790283479015780332 0.29326604342411954907 -0.40757918639125023663 -0.078465768460427062769 -0.23509671921428135222 -0.15656026923064630951 0.29906082108986614676 0.037760654714101851703 -0.22665786997353309928 -0.31242940238570232614 -0.051554537786265286492 0.050499956726528009987 -0.1239991102908512971 0.14797322811012111887 0.14425496770828727389 -0.24133935659071820146 -0.41585941849453944563 0.2345616361814457651 0.18343846210963116183;-0.35598798276491139259 -0.26386312754024138227 0.18300659461782270432 -0.13517062586919290079 0.09447770360547369517 0.0097469020203220201048 0.12140464358185286409 -0.099791602250334329738 -0.12222187836643393088 -0.38168884912495615325 -0.18913831346549964119 -0.20117024886194762034 -0.10554139799217134021 0.19375834582039042076 -0.20158560119738699878 -0.11279191695482104763 -0.029567005122063429179 -0.15184355648850650367 -0.2818276484678452487 0.31199817313248945361 -0.17079304412830290105 0.39262410635102246159 -0.075461513416996681136 -0.19739553685575983444 -0.25502843245773321179 0.20075888044053244452 0.23839557966903709985 -0.04036794961928471398 -0.051691769602904412417 -0.23292660608569665248 -0.24370668750763088695 -0.12503602799632718146 0.032432606859491140694 0.28029266222937188058 -0.23602919689427998007 -0.24966256673418307788 0.28156085181658568883 -0.31847862554333566942 -0.044371862545766867225 -0.24766537081110986951 0.35688674883349374989 0.087460956601813660827 -0.06309248328866588762 -0.096709800132210796408 -0.086538990502468202126 0.19403658444676577521 -0.061118630265250419031 -0.035274011841066731099 -0.19498686544996629566 0.30465216969681829795 -0.11672566685626317717 -0.18763262617795245513 -0.18023451382828889478 0.21907442677780916696 0.1696943190602940299 0.13586504815758632114 0.30846945990835050733 0.19338897704514995679 -0.25379215808657989983 -0.17492915449175761022;0.15548490942518117253 0.17827567497947097164 0.20898108805596024573 0.063240573753198664475 -0.19443511714552402792 0.068917692450238571267 -0.054126835735103920322 -0.27743911289897799088 0.069924842906830916855 -0.14819724438850095938 0.10862019740405003121 -0.017033897506687496748 -0.1713588256771931273 -0.38662961663443817795 0.0055269972508061706098 -0.026254132112063847254 -0.30816331985579759056 0.20912971876520214387 -0.15072506983648964463 0.26408856038834516156 0.14872428503963366908 0.27586901906286320774 0.28785784462734670397 0.087383201319746681146 -0.14087743274979763752 -0.34908928561353214093 -0.059722070958079659375 0.14001853092147276136 -0.2724011615938665698 0.043791083235194205869 0.2497358097572532909 -0.28528285373478134979 -0.038128811757364385049 -0.23457904488193676018 0.26194035800105175404 0.19840224339004547405 -0.16399173644412604056 0.077695526602894041113 0.093686488406208801027 -0.18833249115345243596 0.0094126856087732684031 -0.084454264705831741389 -0.15356746851385891239 -0.118200737392603894 0.12551715253327661026 -0.085490285008421415536 -0.35900622740891452445 -0.32652141224627151406 -0.32491261343802996242 0.011976316194728166623 0.29211609936745958072 -0.23156543634594176084 0.36721459306437626013 0.078082538328640052616 -0.360218048828225057 0.031372541291806381458 0.012393060357643563216 0.25232313437263365064 0.025006494214517036717 -0.30655543041401789317;-0.24969702830177115116 0.10002455733251279513 0.11009386852031112503 -0.2967539498487287708 -0.21367694165579295684 0.12690629354823823594 0.064040770652168885202 0.2338658157364893464 0.25281706745867166264 -0.18126419976800428602 -0.14612795323191524188 0.052478358142952534482 0.2061650756983139654 0.023268556202257231064 -0.22486046782031701707 -0.1226908567270744016 0.14425718116724997597 0.17448728296820825712 0.31177711028160881579 0.022960850641097870634 0.28591802044627273593 -0.17810797632428698734 0.23157926702449352363 -0.332607423432587479 -0.21864133756748285742 0.19701055862733557467 -0.0059769025192337203387 0.069760116840363109447 -0.26770519861272479289 0.067550570272221152623 -0.21368856255909182695 -0.30736023646307697454 -0.21624326190198100983 -0.32918766947841843207 -0.29246073897690139098 -0.32723370615522617832 0.11094323219967133776 -0.24681324687001299223 -0.039000459578072001199 -0.15193970801094439094 -0.29138922654670873502 -0.29678701913377258936 -0.11613232067550380289 -0.096626222357976659927 0.036742567257056532593 -0.13514599760691539676 0.30179880133666003861 -0.25355528613370348356 -0.23929416532508041016 0.031356359456237263561 -0.027463215909791685587 -0.00098812314735024445872 0.060463009818272246687 0.051217953787581087244 0.21870336114602825783 -0.14446342699281833344 -0.17680307121459093445 -0.26234944220988393182 -0.13987343919022543481 -0.21423349414097364596;0.094578136557251377137 -0.17670554909763322438 -0.17732009049495336961 0.23358516599834325267 -0.0054244764777166103176 -0.26531758392053267359 -0.12092260150856432022 0.27399252569763632437 -0.10901211691145701321 -0.060108002341618060882 -0.099991838817835354547 0.22605082623946839981 0.096970853456232561363 -0.062841079910095506977 -0.095512145062228881454 0.052752037226381158497 -0.358276880629729233 -0.31208563725162913327 0.23202489736527859288 -0.18233929567024104168 -0.32090968921316564977 -0.046692715076836283083 -0.23531435066295855463 -0.024896260710604353056 0.098700788008404163887 0.28743240912564405054 0.21113937521174763745 0.13861218745922618267 0.15090536830290376957 0.067473469033147631668 -0.10583315499328617426 -0.17149565721375964467 0.32202532808467554393 -0.25816575731610863498 -0.032637585063445787026 0.26685252100150030907 -0.15951041719911804306 0.15001829407433642238 0.2366578001027358491 -0.059892474548502730447 0.067626720030511761061 -0.31934229497552607535 -0.033674813154352459255 0.20387720278761781167 -0.32949756643076294482 -0.31282918421532340814 -0.029868906078174807528 -0.025794111289702052053 -0.011356172382624294542 0.28031072357511255255 -0.23632114085805075443 0.27341233605880982394 0.25708960716823225923 0.0017782161936320394369 -0.44551449726636599413 0.30493256825369369212 0.28217252625812710987 0.04755239028170444443 0.24744387256071440073 0.24871917430706355634;0.11580030229709677159 0.20827883619183679142 -0.080445719574316759681 -0.23359989413763984634 -0.1514615752930040804 -0.070781885714041342661 0.25500152594269198669 -0.34277907273521107667 -0.085694568870772258595 0.13710384987357249198 -0.041940959691181951829 -0.24117929873599222579 0.33070570930883447236 -0.10218612507976729264 0.40920488500851381897 -0.10523585631457806067 0.1124250692311153238 0.17908941074943940386 -0.17910830267042407438 0.066531044667902758394 0.26241617752017892817 0.12091271064569558691 -0.18782052724822931311 -0.34141805994386031919 0.031612419594392447697 -0.051577839103154346501 -0.076667511660511736271 -0.20081867327028107839 0.17336574346221644838 0.066279027682468322213 0.17841689649498279624 -0.15323524570531554811 -0.083819787726583883103 -0.21571976717401095125 -0.27496693686375311971 0.12293335182525658156 0.027765213790251600662 -0.32811429033027966762 -0.162224867921991589 0.29528589016637663001 -0.14276770451517817317 -0.24944539178792843326 0.18647443780593597751 -0.26887152555829219036 -0.11540370632559047992 -0.26039730405651273504 0.28383230223780570034 -0.1113861625948269346 0.38748820949155404758 0.28217507798263691265 -0.14323209959708108063 0.40328765077897588132 -0.30788343590847638831 -0.11567546287343959122 0.36843666328072638416 -0.11304309259532542564 -0.30879677919220432925 -0.3084260289421321688 0.0021670182555121129259 0.17610294925494357487;0.20409938117872031271 0.30614171698083680884 0.031293146161906815195 0.15767929867284286027 -0.1002722080413759459 -0.23301642798726499017 -0.10528653903719996376 -0.10248656131544410519 -0.28202153490526599144 -0.026683248383433416651 -0.18093060899308560652 0.12065398575103601642 -0.25729422363701992538 0.20596595038128817645 -0.26138140709409168894 0.2933114741078193255 -0.052749607080748626975 -0.16474915186493424568 -0.12873302833486585661 -0.21283349886942512508 -0.26507352122628485835 -0.30084066572102291515 0.032835250200609844562 -0.25762029102575451089 -0.27179890678646251301 0.14555768178956490777 -0.26789511026918616521 -0.18519614432142567084 -0.26632430183946564917 0.2112247932748552437 -0.23462366957558147829 -0.26485822922075497043 -0.042422203176602300834 0.094330251064407996675 -0.15353545592562617417 0.071199262268074089977 0.1263794456081251405 0.25815569173054375707 0.28293220137378821688 -0.097511476258205651013 -0.091301401984469301998 -0.12407835141423029235 0.13729549630791001991 -0.08928467978718505893 0.11592635603908568731 -0.30349434503799005425 -0.15198344552514500561 0.07569404696035120228 -0.20636101985047428098 -0.31454636240821021165 -0.29440467692247579423 -0.14567399710706194216 -0.029748046961936322474 -0.15881758533493556262 0.14804563277428986479 -0.2842842430727542391 0.32781564851615024869 -0.14974581670246997489 0.0082556903776143594764 0.18577054160627259893;-0.23010039397349130175 0.15097729374522148027 0.14820274705517824665 -0.23591283416126432315 -0.076920001317211661451 -0.39485726980408414333 0.057582504561228028961 0.11452148532520348145 0.2626176778265194578 0.0013805192283813270612 0.037561207614707929625 0.15334740007086827829 0.17683798786633556088 0.36799986873583534486 -0.077595672656237749121 0.30518496512833875878 -0.1436025550906825099 0.34223476936803670645 0.16054865227892187174 0.32791411575187606742 0.295724190811844867 0.39689347838918181965 -0.03917260229058636134 -0.28375501254629126313 -0.32732954302433703297 -0.27025047740875479674 -0.076433275531731209584 0.090664642051924287935 0.049671311450209552907 -0.35236933852508028897 0.14305446728823978386 0.043691106011574276646 0.071021966617852538839 -0.24509326752706020458 0.07899990871478738963 -0.11795162711389653443 0.013214835985758385806 -0.21715157927545081229 -0.066834824037681761499 0.31969355378798569589 -0.026883660095747691221 -0.12411765840153697604 0.013149668825514531506 0.31641733402204774706 0.13001791731490283666 0.078531578899699999718 0.099888922132458077274 -0.27108422799325687658 0.25284442961789388438 -0.0061427904416986919139 0.26968562940705009812 0.094446512067710722271 0.33499892089375732374 -0.082102327821009291053 0.28850894930807147176 0.12030492653895240307 0.22154542624399761741 -0.1826106554059164222 -0.062492857649611967263 -0.0068350899477063057144;-0.21969704022221711592 0.32886473101063234958 -0.158884820784399583 -0.27216879271646127192 0.2202464984411113269 0.19599008555420024957 -0.20813974780053601243 0.32130418974402746857 0.023429330307114259319 -0.10531326721243554345 -0.0018415525224540060453 0.3291734548897700674 -0.50871717695718343677 0.30787878771832460911 0.060669038797508116623 0.22550867493683854348 -0.20231284227873549963 -0.22845720038828259968 -0.27501483208624288856 -0.081287615761849771334 -0.014572887138012295682 -0.072075557498668174627 -0.27239379865246010626 0.036990451137355120914 0.0095888188637345758703 0.30601343517479684397 0.058948500677342016707 0.12351522797023709033 -0.03220327414164378399 -0.007683028925248715918 0.38799567670259194063 -0.14151120356301385983 0.1700680507861473123 -0.084117076863435100154 -0.17849921466876278453 -0.27701708029426941327 -0.09401732432705905973 0.25808570429309979355 -0.031016566768599200532 -0.076395722319751405149 -0.058908500038442938862 0.21003890932270347092 0.29076856296620490205 -0.11950627090256497886 0.059857875406838186028 -0.22614858634643569824 -0.46060351279750272324 0.13851219639499684488 -0.086667491482086092547 0.074417109280509263769 -0.21207674019779088059 0.024776873411446787704 0.16192344684385537312 0.0080822041552049070368 -0.2036742813878135161 -0.012813265165453925631 0.34509466099961472185 0.13291081040222368914 -0.33047980205771565476 0.076737284454765075647;0.0035641841102469046763 0.41241363099321598495 0.085539584854064792951 -0.07564186904089148511 -0.15513055458875457671 -0.0077809829098781264911 -0.16197471842476504622 0.2132329650788149511 -0.24771912727266068299 -0.13100091428817894901 0.24136464649600303245 0.30420900530151018248 0.12820720216539099878 -0.34231338453343274075 0.32763463933697817287 -0.062793083907857413783 0.17382150191408246576 -0.15135504965820084644 0.015147219172475367283 0.27628277342812596062 0.2333909442063807349 -0.26399527048067944479 -0.1185626159402530938 -0.2327025827953435877 -0.23726705829175021023 0.12525747834709946571 -0.050202920900725749032 0.34123167266876530679 -0.0057961093891628840194 -0.086639408807994797157 -0.014273790034800839036 -0.2255965413886099058 -0.16562672267858802311 0.38482124041800735981 0.2763265775020901649 0.31846199202077929424 0.14187515823943369631 0.085411580724295679823 -0.16491856614099761891 -0.15044702461860051668 0.23778503574054984937 0.18536489948102269354 0.00015152265862038768324 -0.27845637270628831317 -0.37660281785870197702 0.077127082114828965365 0.18385417559525302211 0.3253228715253296266 0.070897672296528296831 0.026420031557809919853 -0.41035260074281093567 0.21148113581884236956 -0.26714065573372203222 0.21317346631701095117 -0.25780241009043719513 -0.06646978947459181164 0.1860251527561661844 0.175451824578698512 -0.1734901949825766454 -0.2938691811978471069;0.24121369971085979134 -0.03793555256427487421 -0.053954539968672055039 -0.21153854411136746583 0.32389909362029717377 0.21768246762916459991 -0.26191126424149629992 0.30762234396725102181 -0.057301579603955210551 -0.15441056037642891807 0.18590040321045003813 0.3390699175963934886 0.071473948362437506043 0.22580088796288177999 0.15728936418072692049 0.083998139946540290035 -0.23675649900307549345 -0.079339198079245956685 -0.051271230293513513077 0.21850471530460421898 0.09664530987942261675 -0.33864289635063327122 -0.26831430091863517351 0.33731607752695969005 0.32810810448604338374 -0.065616290096916760066 0.20959105023426852221 0.065682407591748703801 0.030251035622250226076 0.25461043045356185344 0.073790750872533644733 -0.12580724199323398138 -0.16259515094197929397 0.24880534731038156382 -0.14396116682021611877 -0.097376383183508455343 0.17022052282384489419 -0.12906250558610055101 -0.13738376732324630858 -0.020738945601487993042 -0.20258834563382147054 -0.21344931432415928385 0.025845969030203901767 -0.068450045418551944132 0.12791525506124734601 -0.0080459079158632269835 -0.26171557605627016052 -0.2757937751751620703 0.091335223129124870622 0.18184899292079517719 0.29202961010464167924 -0.047161848491064868594 0.099274520952525160955 0.15822448053088719599 0.30044374950642710465 -0.30482682131991795105 -0.19558055820731909402 -0.30742888015830432957 0.22702273124160118889 -0.13106936054519124912;-0.27058525577204700641 -0.26928559651429101462 -0.16046247255027523693 0.26863795319930644512 0.30119919050597737664 0.014670045198739012707 -0.20000525304789892878 0.2334015853577572075 0.3572801967977214388 0.30108303498608052218 -0.17084628773638829702 -0.29585384602773895368 -0.1956643725372439746 0.077871979098082952375 0.070893364358825303184 0.41232125568777971969 0.32197932598183348629 -0.19939429669642960707 -0.18610622053165418177 -0.0028355813994961317007 -0.023318875012241110228 -0.083376386153722864547 -0.28842692879383824422 -0.17403669766874946268 -0.1386523567510465349 0.22325208986717712256 0.1610119382597127724 -0.33548171125728781794 0.23859761377439622776 -0.00017549921819052724525 0.004413579212758419329 0.30049909134011237866 0.15478072081119897963 0.1763188256289132394 -0.035760721396624915724 0.18910244635700987348 -0.19382684991631130011 -0.15795383088944428551 0.27521856984966452941 -0.053043352730059570299 -0.068966200407463498778 0.12649628122237957517 0.20676477373443241659 -0.46820300074971554771 -0.055211924926530764335 0.096667185312947365161 0.4313037201812453536 -0.12803588614035479876 0.22729176684369548078 0.13857112630264226127 -0.245091715152290196 0.066784499128217100772 -0.23388610745626195464 -0.29684593402323278255 0.27332782282125744899 -0.033276831236763101951 -0.24663063898412859731 0.0013906192705102670207 0.28384525611857591709 0.14602907172161894156;0.013145966434031394407 -0.13456531646840730332 0.088854605190674978976 0.28762097895672894543 -0.24082245644863486955 -0.22592702657460089766 0.13461591765239652729 -0.15490347291432812749 -0.23823380547352135395 -0.25477187047601851377 -0.060399234821261443829 -0.17603921236494807223 -0.15677459152637401862 -0.28067177140124954793 0.11034151809223829988 0.25266993609745169724 -0.085068725419853774561 -0.28791971461457666059 -0.092224536125011927212 0.23756854198754109864 -0.21254480866280250906 -0.26396810122812286448 -0.27994133937337711826 -0.22229383451745005074 -0.058036558861650260066 0.17105079056254485215 -0.33999088110746655822 -0.23200979060862947367 0.0015516542682777359312 -0.18180841847230874708 0.064992943414935749891 -0.078994820940132853826 -0.2002992225546087468 0.29490599313786408642 -0.28526264947227414348 0.13839876112597490621 -0.1792320153735048327 0.060289446461269283195 -0.27023948304845196722 0.011386248439120392681 0.047900814774838831878 -0.20983921804890823259 -0.30390013011535405019 0.14351634592163717286 -0.016155162044591910714 -0.1100980320514374361 -0.14635919563027480206 0.14122585268378173851 -0.1323918629875500963 -0.02780908496414470979 -0.36974149721339233388 -0.0096211421070221975899 0.16674642451687066158 0.30904015453084737741 0.34234451268776988631 0.17388795950526086953 0.074459774974123538183 0.15120420767875766832 -0.24761312813229977015 -0.21637657993167050408;-0.19225478136472673452 